tree
version=v4
num_class=1
num_tree_per_iteration=1
label_index=0
max_feature_idx=26
objective=binary sigmoid:1
feature_names=d1 d2 d4 d8 d16 d32 d64 d96 d128 margin_2 margin_4 margin_8 margin_16 margin_32 margin_64 ratio_8 ratio_16 ratio_64 slope_1_8 slope_8_16 slope_16_64 slope_64_96 var_16 var_64 entropy_16 entropy_64 margin_16_32_ratio
feature_infos=[440:139813] [628:141492] [870:146482] [1214:148511] [1710:156772] [2785:162603] [4280:168871] [5587:173240] [6874:163989] [1.3424981205026313e-05:14.525937031484258] [0.0046310346765581004:16.11664167916042] [0.0186797107795495:17.162818590704649] [0.055397745047739401:17.651574212893554] [0.096226812816188806:18.34542728635682] [0.12666291924302039:19.8547507788162] [1.0186797107795496:18.162818590704649] [1.0553977450477394:18.651574212893557] [1.1266629192430204:20.8547507788162] [83.714285714285708:13501.571428571429] [29:6810.625] [24.4375:923.95833333333337] [17.5625:569.1875] [93244.62109375:680409405.609375] [527803.22045898438:1179115976.9606934] [-1.0000000826903708e-10:0.5822031086882179] [-1.0000000826903708e-10:0.5822031086882179] [0.4028185554903112:0.96217841848909824]
tree_sizes=3257 3419 3423 3416 3429 3420 3427 3418 3424 3419 3411 3431 3415 3426 3431 3430 3422 3407 3422 3430 3429 3426 3418 3428 3434 3428 3419 3420 3420 3440 3412 3428 3415 3405 3429 3431 3427 3438 3436 3417 3439 3411 3423 3426 3420 3417 3435 3442 3418 3418 3397 3425 3412 3423 3399 3413 3426 3423 3414 3403 3430 3424 3399 3411 3416 3431 3397 3423 3383 3406 3416 3408 3405 3436 3406 3427 3420 3417 3428 3409 3429 3392 3418 3392 3427 3402 3403 3406 3401 3405 3433 3436 3408 3403 3393 3409 3416 3395 3424 3413 3417 3431 3414 3410 3419 3415 3420 3427 3445 3412 3411 3431 3431 3439 3410 3422 3401 3428 3437 3416 3430 3473 3426 3415 3395 3384 3409 3417 3402 3434 3393 3411 3413 3436 3427 3433 3417 3439 3423 3405 3406 3400 3441 3406 3407 3419 3414 3402 3414 3405 3437 3423 3417 3384 3424 3414 3424 3407 3397 3400 3418 3406 3418 3435 3391 3395 3411 3373 3402 3427 3416 3420 3422 3408 3450 3424 3393 3393 3432 3392 3418 3414 3432 3400 3422 3407 3436 3409 3420 3424 3434 3409 3407 3405 3381 3430 3403 3420 3424 3401

Tree=0
num_leaves=31
num_cat=0
split_feature=14 14 10 14 10 18 14 18 14 21 22 26 14 10 16 26 14 10 13 21 1 20 3 21 0 6 6 11 11 19
split_gain=716.201 173.633 85.8006 77.5398 52.8434 28.0059 27.1602 38.3834 25.7702 20.5584 19.1459 19.1031 18.6412 19.9309 16.5256 16.3055 15.9946 14.7101 21.2121 13.0655 12.4805 15.7284 14.9852 11.9944 14.031 12.6163 16.0617 11.7239 10.9607 13.2329
threshold=0.45775312380572991 0.33192300663034235 0.10280865865764291 0.66952074246838644 0.15126483046934702 1447.6428571428573 0.26639159477187718 861.64285714285722 0.36466755333815731 128.29687500000003 25924342.529296879 0.82539582979073678 0.53536202542250044 0.24605910526986027 1.1842326894612041 0.83773872076531353 0.34558159877003874 0.16368452819036833 0.35002693082550707 68.890625000000014 42949.500000000007 170.23958333333334 62876.500000000007 74.828125000000014 51322.000000000007 64290.000000000007 61413.500000000007 0.2827145775810867 0.098651527745635112 467.75000000000006
decision_type=2 2 2 2 2 2 2 2 2 2 2 2 2 2 2 2 2 2 2 2 2 2 2 2 2 2 2 2 2 2
left_child=1 6 8 4 -2 15 -1 -8 14 17 19 -5 27 -14 -3 16 -4 18 -7 -9 -13 22 -22 24 25 26 -18 -6 -21 -30
right_child=3 2 5 11 12 9 7 10 -10 -11 -12 20 13 -15 -16 -17 23 -19 -20 28 21 -23 -24 -25 -26 -27 -28 -29 29 -31
leaf_value=1.3661246725962062 1.519736669554888 1.4939365331528975 1.3783720007576581 1.5397426250923412 1.4720112463743542 1.4010762720508958 1.446049544130203 1.3427306029161357 1.4995026457519915 1.4889119882661481 1.5110199857678461 1.5308328733594101 1.5053334634902447 1.4619402313140766 1.4372962089749937 1.3738906499127195 1.4612769913890256 1.376608064786778 1.4723879695148789 1.4612769913890256 1.4960436003634701 1.5138624425894929 1.3949529988839315 1.4925225908732094 1.3452100045051112 1.5334845638744101 1.3388934337903402 1.4251389185497116 1.4045525241149321 1.3509773082012062
leaf_weight=53.072800159454346 155.44902546703815 19.90230005979538 5.1263500154018393 225.25785067677498 54.731325164437294 36.336775109171867 44.327850133180618 16.132925048470497 100.71770030260086 8.1418500244617444 3.0155000090599051 71.165800213813782 88.806475266814232 37.693750113248825 36.487550109624863 5.5786750167608252 17.489900052547465 28.345700085163116 14.625175043940542 5.4279000163078299 9.3480500280857068 52.771250158548355 6.0310000181198111 30.004225090146065 3.0155000090599051 4.6740250140428534 3.1662750095129004 17.64067505300045 34.376700103282928 17.33912505209446
leaf_count=352 1031 132 34 1494 363 241 294 107 668 54 20 472 589 250 242 37 116 188 97 36 62 350 40 199 20 31 21 117 228 115
internal_value=1.48283 1.43604 1.45825 1.51455 1.4979 1.43204 1.39593 1.40905 1.48435 1.41325 1.38755 1.53074 1.48082 1.4924 1.45729 1.45585 1.46305 1.40548 1.42154 1.38247 1.51619 1.5009 1.4564 1.47049 1.44717 1.4593 1.44252 1.46059 1.39368 1.38659
internal_weight=1206.2 487.305 313.612 718.895 354.321 156.504 173.693 120.62 157.108 87.4495 76.2922 364.574 198.872 126.5 56.3899 69.055 63.4763 79.3077 50.962 73.2767 139.316 68.1503 15.3791 58.3499 28.3457 25.3302 20.6562 72.372 57.1437 51.7158
internal_count=8000 3232 2080 4768 2350 1038 1152 800 1042 580 506 2418 1319 839 374 458 421 526 338 486 924 452 102 387 188 168 137 480 379 343
is_linear=0
shrinkage=1


Tree=1
num_leaves=31
num_cat=0
split_feature=14 14 14 10 10 14 18 14 18 23 14 21 16 1 20 16 21 4 10 13 19 14 21 2 21 9 22 22 18 11
split_gain=639.685 141.554 74.7051 73.7229 49.3735 23.1336 23.0156 20.5585 30.3203 23.6332 18.68 16.9582 16.811 14.9785 23.0917 14.3515 13.7653 12.9879 12.0435 14.6755 12.0429 11.5264 11.4987 11.1733 12.1598 11.1473 11.0072 10.8587 10.7583 10.6487
threshold=0.45775312380572991 0.33192300663034235 0.69067742008462452 0.10280865865764291 0.15126483046934702 0.36466755333815731 1447.6428571428573 0.26639159477187718 861.64285714285722 40673821.05163575 0.53536202542250044 128.29687500000003 1.3470288211275674 40494.500000000007 213.36458333333334 1.1842326894612041 103.57812500000001 72405.500000000015 0.20012851868616041 0.35002693082550707 230.18750000000003 0.54727759176508106 58.593750000000007 65137.500000000007 95.765625000000014 0.097120054861141072 14720433.699218752 3820254.0996093755 1591.1428571428573 0.29646314870696472
decision_type=2 2 2 2 2 2 2 2 2 2 2 2 2 2 2 2 2 2 2 2 2 2 2 2 2 2 2 2 2 2
left_child=1 7 4 5 21 15 16 -1 -9 -10 25 18 -12 -4 23 27 17 -5 19 -8 22 28 -14 -15 -25 -6 -21 -3 -2 -27
right_child=2 3 13 6 10 -7 11 8 9 -11 12 -13 20 14 -16 -17 -18 -19 -20 26 -22 -23 -24 24 -26 29 -28 -29 -30 -31
leaf_value=-0.10302899896283176 0.03594537652737307 -0.062462379454302365 0.055997875060974735 -0.027172533451103587 -0.0019229536715222977 0.016009124192580177 -0.080328183048561722 -0.034129322022166945 -0.092436466393788608 0.015705818512517157 0.053411670764507813 0.0057984936640686144 -0.12886114217599029 0.015589629470826767 0.050220367098787945 -0.042017356015859431 0.040386778976999618 -0.12715431836118479 -0.13654100187738044 -0.11983552757471144 0.0079391998918745318 0.054109009348953123 -0.011533375297994378 -0.12404791978966097 0.013902378688202661 -0.026963413792052412 -0.022194923071136043 0.02941919858119374 -0.0018572807719900244 -0.094545334185313218
leaf_weight=57.001991271972656 72.019894570112228 4.0424705296754864 210.44601505994797 59.610656559467316 37.808342397212982 99.661304771900177 50.448880091309547 45.357734978199005 75.488250851631165 5.4144590198993674 19.48526594042778 8.1106798052787763 3.155313238501547 38.457620173692703 80.158848658204079 37.537604838609695 7.1930508613586417 3.435348078608512 6.2762766927480689 3.2970727086067226 110.73114117980003 58.708143979310989 6.1752226948738098 3.2292071282863608 3.1612017750740051 28.235763370990753 23.172311261296272 15.720718726515768 25.479431003332138 7.345000132918357
leaf_count=352 489 27 1445 388 248 668 317 294 471 35 131 54 21 259 548 242 48 22 39 21 740 399 41 21 21 185 149 105 173 47
internal_value=5.08461e-05 -0.0430943 0.0307761 -0.0229498 0.015256 0.00145416 -0.0466616 -0.078105 -0.0668527 -0.085199 -0.00040591 -0.0632146 0.0103337 0.0478549 0.0341463 -0.0238608 -0.025144 -0.0326205 -0.0699427 -0.0645085 0.00334243 0.0366058 -0.0512102 0.00541633 -0.0558068 -0.020827 -0.0343572 0.0106252 0.0260664 -0.0409145
internal_weight=1206.37 501.769 704.596 318.506 369.144 156.962 161.544 183.262 126.26 80.9027 212.936 91.3052 139.547 335.453 125.007 57.3008 70.2391 63.046 83.1945 76.9183 120.062 156.207 9.33054 44.848 6.39041 73.3891 26.4694 19.7632 97.4993 35.5808
internal_count=8000 3232 4768 2080 2474 1042 1038 1152 800 506 1413 580 933 2294 849 374 458 410 526 487 802 1061 62 301 42 480 170 132 662 232
is_linear=0
shrinkage=0.05


Tree=2
num_leaves=31
num_cat=0
split_feature=14 14 14 10 10 14 26 26 26 14 4 6 22 16 18 14 16 9 13 1 23 4 21 14 18 18 18 18 22 10
split_gain=573.232 117.046 71.7762 63.7365 46.0939 20.7782 20.7024 19.0082 17.0753 18.7959 16.4231 19.7998 14.4275 13.746 12.8741 12.8093 12.5219 11.952 12.0358 11.5854 13.3652 17.818 11.4214 11.2447 11.2101 16.2045 10.1348 10.0331 9.67552 12.247
threshold=0.45775312380572991 0.33192300663034235 0.69067742008462452 0.10280865865764291 0.15126483046934702 0.36466755333815731 0.72799853536013925 0.82539582979073678 0.89547044468293402 0.53536202542250044 71049.000000000015 79595.500000000015 25924342.529296879 1.3470288211275674 1581.214285714286 0.34715301072847571 1.1842326894612041 0.11321030300425607 0.40106365864332189 42949.500000000007 55885245.585449226 74149.000000000015 63.671875000000007 0.54727759176508106 1120.0714285714287 833.50000000000011 1539.9285714285718 772.357142857143 17780582.371093754 0.18569881150725878
decision_type=2 2 2 2 2 2 2 2 2 2 2 2 2 2 2 2 2 2 2 2 2 2 2 2 2 2 2 2 2 2
left_child=1 10 4 5 23 16 -5 -4 9 17 22 -12 -13 -11 15 -8 -3 -6 -19 -9 21 -21 -1 26 25 27 -2 -24 -16 -30
right_child=2 3 7 6 8 -7 14 19 -10 13 11 12 -14 -15 28 -17 -18 18 -20 20 -22 -23 24 -25 -26 -27 -28 -29 29 -31
leaf_value=-0.078095218202466288 0.035893240499267599 0.010185334587072971 0.056630536074726359 0.0037725358417701384 -0.002717384115350197 0.015368760368737466 -0.10349626370614989 0.046507274351895417 -0.089021489806177093 0.052564350986654108 -0.18039097755267874 -0.08291827322616642 0.028207793906598218 0.0065067980897869707 -0.095678975291465185 -0.028969245242484138 -0.038880679833138233 0.0042910878550769275 -0.066776551837106721 0.0089544270390548488 0.03873851771772352 -0.097112558284796535 -0.03744312725677592 0.053290095807982378 0.03888939445320292 -0.083821928023883913 0.00048908833216479821 0.041539399370569441 -0.042624853437278495 -0.10649263567200472
leaf_weight=33.940549850463867 66.912609413266182 19.631638392806053 198.0971851348877 20.669509053230286 45.050147101283073 98.64954286813736 6.2955086827278128 65.421542793512344 5.2967137098312369 18.826165482401848 5.115565061569213 93.769902378320694 3.0146790742874137 116.13481421768665 18.851905062794685 68.484252512454987 38.511336863040924 8.6828226149082202 18.981420502066612 24.971783816814426 31.94817142188549 4.7055818587541571 27.912639617919922 56.681347489356995 4.0401096791028968 19.351176604628563 28.963321775197983 4.6974683105945578 42.715712144970894 9.106023043394087
leaf_count=205 465 132 1411 134 294 668 38 463 34 131 30 556 20 778 113 434 242 56 120 169 221 30 172 399 24 116 197 29 265 54
internal_value=9.21966e-05 -0.039847 0.0298588 -0.02147 0.0146568 0.00139502 -0.0430508 0.046949 -0.000370678 0.00189034 -0.0707798 -0.0845239 -0.0794569 0.0129315 -0.0497046 -0.0352435 -0.0223138 -0.0186026 -0.0444709 0.0318531 0.0162962 -0.00786334 -0.0552082 0.0356353 -0.0413372 -0.047575 0.0251979 -0.0260657 -0.0650059 -0.0538476
internal_weight=1205.43 514.758 690.674 322.915 365.529 156.793 166.123 325.144 212.972 207.675 191.842 101.9 96.7846 134.961 145.453 74.7798 58.143 72.7144 27.6642 127.047 61.6255 29.6774 89.9419 152.557 56.0014 51.9613 95.8759 32.6101 70.6736 51.8217
internal_count=8000 3232 4768 2080 2474 1042 1038 2294 1413 1379 1152 606 576 909 904 472 374 470 176 883 420 199 546 1061 341 317 662 201 432 319
is_linear=0
shrinkage=0.05


Tree=3
num_leaves=31
num_cat=0
split_feature=17 17 17 10 10 26 17 26 17 10 17 18 23 26 1 20 2 17 12 18 17 22 18 21 9 21 5 10 13 18
split_gain=514.935 97.8099 68.9487 55.3508 43.0167 18.816 18.6856 17.7098 15.3994 26.2728 14.9281 21.9882 17.7903 13.0218 11.1411 12.778 13.1549 10.973 10.9518 10.6462 10.4762 9.72172 9.55207 10.163 9.38263 8.91451 8.68221 8.45931 10.5545 7.90264
threshold=1.4577531238057302 1.3319230066303425 1.6906774200846246 0.10280865865764291 0.15126483046934702 0.82539582979073678 1.3646675533381576 0.72799853536013925 1.5535085050097244 0.27596846520983959 1.2663915947718773 861.64285714285722 40673821.05163575 0.89194675217385799 42949.500000000007 170.23958333333334 59122.000000000007 1.547277591765081 0.18423268946120372 1581.214285714286 1.3471530107284759 3820254.0996093755 1591.1428571428573 96.796875000000014 0.08343544327648536 128.29687500000003 101562.00000000001 0.085067163365471557 0.30886434235709098 457.85714285714295
decision_type=2 2 2 2 2 2 2 2 2 2 2 2 2 2 2 2 2 2 2 2 2 2 2 2 2 2 2 2 2 2
left_child=1 10 4 6 17 -4 18 -5 9 -6 26 29 24 -10 -7 16 -16 22 21 20 -9 -3 -2 -24 -13 -21 -1 -8 -29 -12
right_child=2 3 5 7 8 14 27 19 13 -11 11 12 -14 -15 15 -17 -18 -19 -20 25 -22 -23 23 -25 -26 -27 -28 28 -30 -31
leaf_value=-0.078786139634839658 0.034038343307676168 -0.057881419080204881 0.05593429237853012 0.0035924996204663414 -0.0096724119867221264 0.045608172188170322 0.025025080922391963 -0.092612490990455029 0.014944915591374192 -0.13687408826371633 0.032261163885369405 -0.071216494060356517 0.016988981954944967 -0.072178074997120936 0.011003054905767695 0.028332659259618233 -0.088452908211362272 0.052498732061421909 -0.036067399029743652 -0.064503286157041859 -0.027033202115268825 0.028167899939853292 -0.049936247670301942 0.018904852609330298 -0.13786276473186806 0.0005369619966820279 -0.14322038669338591 -0.046913957963336111 0.01397759800766081 -0.034799619435747532
leaf_weight=57.276236221194267 68.806562930345535 4.1768246591091183 190.72199742496014 20.621358498930931 90.231927648186684 63.426628977060318 65.656807124614716 6.6730306744575492 114.0244172513485 4.2506232410669318 4.8931429684162131 77.509095937013626 5.5131758302450171 4.4565298259258261 9.0035836994647962 46.685936003923416 5.2714235037565222 54.709125727415085 39.415143370628357 67.631569445133209 69.687239766120911 15.327729508280752 7.6652745604515102 17.836504265666008 5.6670752912759772 5.7133902162313452 5.7531442642211905 10.674714744091032 21.349429488182068 42.99209488928318
leaf_count=320 489 27 1411 134 586 463 449 38 773 26 30 439 35 28 61 327 32 399 242 395 434 105 52 121 32 37 32 73 146 264
internal_value=0.000126507 -0.0369597 0.0289662 -0.020121 0.0140795 0.0460672 0.00133509 -0.0398481 -0.000338739 -0.015395 -0.0645395 -0.0552503 -0.069992 0.0116679 0.030938 0.0156745 -0.0257237 0.0346848 -0.0209032 -0.0458318 -0.0327641 0.00974077 0.0243508 -0.00178727 -0.0757573 -0.0594368 -0.0846675 0.0147489 -0.00631959 -0.027947
internal_weight=1203.62 526.531 677.091 326.927 361.981 315.11 156.601 170.327 212.963 94.4826 199.604 136.575 88.6893 118.481 124.388 60.9609 14.275 149.017 58.9197 149.705 76.3603 19.5046 94.3083 25.5018 83.1762 73.345 63.0294 97.681 32.0241 47.8852
internal_count=8000 3232 4768 2080 2474 2294 1042 1038 1413 612 1152 800 506 801 883 420 93 1061 374 904 472 132 662 173 471 432 352 668 219 294
is_linear=0
shrinkage=0.05


Tree=4
num_leaves=31
num_cat=0
split_feature=14 14 14 10 10 26 14 26 10 14 14 0 14 18 23 18 1 20 2 14 19 10 19 14 12 12 18 22 12 19
split_gain=463.541 82.5973 66.2443 48.2807 40.0575 18.4727 16.8179 15.2532 13.0739 16.7409 14.635 17.5938 12.706 14.9101 14.0039 10.8113 10.6626 12.2295 13.6577 10.4426 14.204 9.8776 10.4336 9.76105 9.61433 9.01971 9.01763 8.66767 8.61383 10.7817
threshold=0.45775312380572991 0.33192300663034235 0.66952074246838644 0.10280865865764291 0.15126483046934702 0.82539582979073678 0.36466755333815731 0.71942207873106356 0.25138408706157439 0.53536202542250044 0.55636209915181267 55364.500000000007 0.24564100723117996 840.78571428571433 40673821.05163575 1125.6428571428576 42949.500000000007 170.23958333333334 59122.000000000007 0.41637833161407928 243.06250000000003 0.16835783866557616 540.87500000000011 0.54727759176508106 0.18423268946120372 0.34702882112756722 1539.9285714285718 3820254.0996093755 0.18154090425190367 537.18750000000011
decision_type=2 2 2 2 2 2 2 2 2 2 2 2 2 2 2 2 2 2 2 2 2 2 2 2 2 2 2 2 2 2
left_child=1 12 4 6 23 -4 24 -5 9 -6 11 -10 -1 28 -15 -9 -7 18 -18 -17 -21 -22 -23 26 27 -11 -2 -3 29 -14
right_child=2 3 5 7 8 16 -8 15 10 25 -12 -13 13 14 -16 19 17 -19 -20 20 21 22 -24 -25 -26 -27 -28 -29 -30 -31
leaf_value=-0.086186577903450676 0.03401322287713774 -0.053034750842830693 0.054008674603563213 0.0064643552934361363 -0.013433029666459432 0.044253549128365537 0.014156714123601602 -0.011722384533419375 -0.01122999544071223 0.05137979325642017 -0.010252786700422992 -0.14592878306705945 -0.029337923143480316 -0.068356392861020798 0.011154831272423268 -0.060271058160448254 0.014347436231402347 0.027685690733875015 -0.080702490058895904 -0.10299560036717884 -0.0078326704134734134 -0.03180290976172629 -0.12192318166255096 0.051137786079170244 -0.033530530674441505 0.011327767544507041 0.00035749201731050936 0.027266300427154017 0.038049787065273254 -0.093516839670714544
leaf_weight=35.980270847678185 63.888305202126503 4.3265229016542461 195.03970125317574 18.097731113433838 70.129288703203201 62.785217180848122 96.756974518299103 24.761982306838036 4.7125420421361905 17.550337672233582 31.332413747906685 4.9924044460058212 47.15920202434063 105.9937891215086 5.8430188298225394 73.372665613889694 9.6739714592695218 49.18561027944088 6.2023916244506827 6.2615434229373923 34.501253768801689 12.902182757854463 4.2760534882545462 48.87392883002758 40.254790484905243 70.614195361733437 28.908541843295097 15.050013810396193 3.9677406102418891 7.5983564108610144
leaf_count=192 465 27 1494 118 447 472 668 152 29 127 206 29 278 577 37 425 66 350 36 36 210 73 24 369 242 481 197 105 24 44
internal_value=0.00015492 -0.0343803 0.0280949 -0.0188814 0.0127259 0.044326 0.00128461 -0.0369882 -0.00172134 0.00479858 -0.0268707 -0.0805215 -0.0591857 -0.0534898 -0.0642023 -0.0420267 0.0295545 0.0153697 -0.0227856 -0.0477412 -0.0318742 -0.0232571 -0.0542359 0.0330533 -0.0196015 0.0193007 0.0235286 0.00933614 -0.0330889 -0.0382436
internal_weight=1200.99 537.104 663.889 330.562 341.002 322.887 156.388 174.173 199.331 158.294 41.0374 9.70495 206.542 170.562 111.837 156.076 127.847 65.062 15.8764 131.314 57.941 51.6795 17.1782 141.671 59.6313 88.1645 92.7968 19.3765 58.7253 54.7576
internal_count=8000 3232 4768 2080 2350 2418 1042 1038 1319 1055 264 58 1152 960 614 920 924 452 102 768 343 307 97 1031 374 608 662 132 346 322
is_linear=0
shrinkage=0.05


Tree=5
num_leaves=31
num_cat=0
split_feature=17 17 1 20 10 17 0 19 26 20 17 4 22 1 19 7 10 4 7 21 13 26 20 20 10 13 13 22 19 10
split_gain=418.019 70.5843 63.8655 47.5766 38.5236 20.4308 18.9035 25.8869 17.7693 15.3614 15.0175 14.3044 17.4842 12.4991 13.2744 11.706 11.6543 11.513 15.3666 10.6464 9.32605 17.048 9.73257 8.92957 8.92667 9.02829 8.59632 9.1831 8.39679 7.77392
threshold=1.4577531238057302 1.3263017215790038 40494.500000000007 172.51041666666671 0.085067163365471557 1.3646675533381576 61231.000000000007 462.37500000000006 0.72579298349649524 217.76041666666669 1.7147950281998063 73725.500000000015 13809759.921875002 51969.500000000007 347.06250000000006 62856.500000000007 0.14741070759500913 71049.000000000015 84424.000000000015 77.640625000000014 0.24498072044441074 0.69866622710097215 142.53125000000003 276.04166666666669 0.18569881150725878 0.36075618048755725 0.20681504389441493 2681093.5058593755 200.43750000000003 0.028661738757672552
decision_type=2 2 2 2 2 2 2 2 2 2 2 2 2 2 2 2 2 2 2 2 2 2 2 2 2 2 2 2 2 2
left_child=1 17 10 11 5 -3 9 -8 28 -5 16 12 15 14 -10 -4 -2 20 -19 -15 22 -22 26 -9 -21 -26 -1 -28 -6 -20
right_child=2 4 3 6 8 -7 7 23 13 -11 -12 -13 -14 19 -16 -17 -18 18 29 24 21 -23 -24 -25 25 -27 27 -29 -30 -31
leaf_value=-0.071422710846456128 0.04705510179692432 -0.017911187541733431 -0.11785671165011924 0.01411277385075348 -0.068451370309349932 0.023686237532684357 -0.097539975714163299 -0.013178594172813241 -0.036033104341445035 0.040321493423796623 0.054050436954112407 -0.071587868477720015 -0.00071337218641341973 -0.066753677179803003 0.012420741920007358 -0.017110002813774079 0.015736617144914949 -0.11468803935434793 -0.021867624319320423 -0.030847965711676195 -0.17054320498884046 -0.047741640302684886 -0.013376290889861886 0.032164599875495747 -0.12674139887672931 -0.030359023379123735 0.04840636544208804 -0.041483520667028921 0.0096928480479700607 -0.065365880581749511
leaf_weight=23.495438620448112 57.801979824900627 54.783845171332359 5.8403563499450666 97.955553948879242 3.8407510817050925 64.005882918834686 6.5494866371154776 22.104391112923622 36.729637607932091 130.24821582436562 172.68102437257767 11.733996495604513 57.952167198061943 39.351429507136345 22.977859064936638 5.6945647299289703 61.108628824353218 14.768971666693686 11.817796841263769 87.242227658629417 3.8064392358064643 10.974885568022726 29.263413906097412 21.340677753090858 5.1525427401065809 4.5977726429700851 3.3323948681354549 19.277197241783142 32.75233505666256 78.504839539527893
leaf_count=125 442 335 38 686 25 449 41 147 223 976 1370 68 387 221 145 37 424 76 63 511 21 60 165 152 27 24 20 110 216 416
internal_value=0.000178788 -0.032056 0.0272475 0.0131417 -0.0186647 0.0045022 0.022971 -0.00487507 -0.0304939 0.0290715 0.0446344 -0.0205256 -0.0119029 -0.0364639 -0.0173861 -0.06812 0.0309604 -0.0561604 -0.0674059 -0.0448184 -0.043051 -0.0793651 -0.0359291 0.00909446 -0.0359189 -0.0812922 -0.0502436 -0.0282348 0.00149096 -0.0596746
internal_weight=1197.69 546.676 651.011 359.419 351.434 118.79 278.198 49.9946 232.645 228.204 291.592 81.2211 69.4871 196.051 59.7075 11.5349 118.911 195.241 105.092 136.344 90.1498 14.7813 75.3684 43.4451 96.9925 9.75032 46.105 22.6096 36.5931 90.3226
internal_count=8000 3232 4768 2532 2176 784 2002 340 1392 1662 2236 530 462 1151 368 75 866 1056 555 783 501 81 420 299 562 51 255 130 241 479
is_linear=0
shrinkage=0.05


Tree=6
num_leaves=31
num_cat=0
split_feature=14 14 14 10 10 14 1 20 14 11 10 12 14 12 5 4 7 19 19 21 2 13 19 11 14 2 14 11 20 1
split_gain=377.792 69.1139 53.4755 42.7101 32.873 17.3353 16.9146 18.5687 16.5056 14.2001 14.0328 14.8549 13.0763 12.6939 10.2322 9.63491 12.4417 8.93106 8.56559 8.48274 8.45499 7.73889 9.20281 9.1702 8.75383 7.5958 7.33655 9.7929 7.21698 7.17456
threshold=0.44515860733376861 0.66952074246838644 0.32630172157900356 0.14027839787069632 0.085067163365471557 0.50446997050929221 42949.500000000007 219.20833333333334 0.36466755333815731 0.24431309699395123 0.27596846520983959 0.41141274470801376 0.41197695042505456 0.25304311842075211 76923.500000000015 71049.000000000015 84424.000000000015 283.18750000000006 662.43750000000011 65.859375000000014 52809.000000000007 0.24498072044441074 318.06250000000006 0.14562786333949176 0.31219169497270816 68809.500000000015 0.54727759176508106 0.21142159853098166 261.07291666666669 68724.000000000015
decision_type=2 2 2 2 2 2 2 2 2 2 2 2 2 2 2 2 2 2 2 2 2 2 2 2 2 2 2 2 2 2
left_child=2 3 15 26 8 19 -3 17 -4 12 -7 -12 14 -14 -6 21 -17 -8 -16 -5 -19 22 24 -23 -1 -11 27 -2 -29 -18
right_child=1 6 4 5 9 10 7 -9 -10 25 11 -13 13 -15 18 16 29 20 -20 -21 -22 23 -24 -25 -26 -27 -28 28 -30 -31
leaf_value=-0.057595077000761163 0.035446341397647248 0.051434080964079601 -0.01683574613554514 -0.058954298201802868 -0.025799468566680729 0.012021411819940632 -0.061305748523709215 0.044380808907632352 0.021339759443816511 -0.048703952657525473 -0.095476742561355202 -0.0058629522127375735 0.02462149057407172 -0.023620616239201093 -0.062780932811481144 -0.1033757154414716 -0.023183837239562546 0.046733795428996548 -0.0089127344292317789 -0.015012477271832823 -0.0042273946797444159 -0.095290558858690574 -0.014512985332137211 -0.0073553364261107722 0.013612755511620181 -0.14426575903023475 0.050919115436299546 0.0089579532624230931 -0.07365402246247521 -0.061103449456490648
leaf_weight=37.001682937145233 67.923481225967407 196.23311676084995 55.354017421603203 13.929715052247046 80.132242798805237 141.29233255982399 4.91197845339775 62.785946182906628 57.962241798639297 4.3208414465188962 6.2755674719810512 17.576389223337173 18.889918625354767 49.025605440139771 45.111493960022926 15.544187515974043 14.845111384987829 11.325305886566637 8.8228886723518354 51.918368443846703 28.92971346527338 11.367619529366491 34.852538973093033 4.0108544826507559 4.8859217613935462 4.0085973292589188 39.520532466471195 24.264578312635425 2.9669374078512183 78.099354967474937
leaf_count=199 501 1607 335 86 476 973 34 498 413 23 38 112 124 290 251 76 77 82 51 323 197 60 193 21 28 21 318 171 20 402
internal_value=0.00019992 0.0250799 -0.0315911 0.0104316 -0.0190183 -0.00261622 0.042689 0.0267926 0.00269135 -0.0307154 0.00603299 -0.0294408 -0.0280771 -0.0102026 -0.0371319 -0.0518742 -0.0619714 0.00234341 -0.0539689 -0.0243081 0.01011 -0.0399826 -0.0334951 -0.0723562 -0.0492891 -0.0946937 0.0328109 0.02529 -4.2815e-05 -0.0550469
internal_weight=1194.09 669.854 524.235 365.668 323.628 230.992 304.186 107.953 113.316 210.312 165.144 23.852 201.982 67.9155 134.067 200.607 108.489 45.167 53.9344 65.8481 40.255 92.1186 76.7401 15.3785 41.8876 8.32944 134.676 95.155 27.2315 92.9445
internal_count=8000 4960 3040 2542 1984 1532 2418 811 748 1236 1123 150 1192 414 778 1056 555 313 302 409 279 501 420 81 227 44 1010 692 191 479
is_linear=0
shrinkage=0.05


Tree=7
num_leaves=31
num_cat=0
split_feature=17 17 17 10 10 26 26 17 17 10 2 23 10 0 17 17 11 22 16 10 26 22 17 17 18 23 16 16 21 23
split_gain=341.579 59.5098 52.4731 34.3146 33.0134 18.682 13.3192 12.6376 12.3638 12.887 12.1729 13.0729 12.1068 12.4458 12.0682 10.8607 10.7963 14.6916 10.0132 9.59572 9.24342 9.17196 9.10845 8.92524 13.6327 11.896 8.19413 8.01113 7.7065 16.5944
threshold=1.4577531238057302 1.7096691461085618 1.3319230066303425 0.085067163365471557 0.15126483046934702 0.84038847742128742 0.71761582635150389 1.5654311062338728 1.9657755273166015 0.37122533990604289 58077.000000000007 42811777.437011726 0.25138408706157439 55364.500000000007 1.3646675533381576 1.547277591765081 0.21538479060014717 14442727.685546877 1.2043341404472143 0.26346536816208349 0.91872479219346492 10462752.669921877 1.4119769504250548 1.2663915947718773 898.64285714285722 40673821.05163575 3.5010489548390757 1.3297328194253306 109.67187500000001 40673821.05163575
decision_type=2 2 2 2 2 2 2 2 2 2 2 2 2 2 2 2 2 2 2 2 2 2 2 2 2 2 2 2 2 2
left_child=2 4 23 14 15 -3 -5 12 9 -7 16 18 -6 -14 -4 27 22 21 -12 -9 -10 -18 -8 -1 -25 -26 -22 -2 29 -11
right_child=1 5 3 6 7 8 10 19 20 28 11 -13 13 -15 -16 -17 17 -19 -20 -21 26 -23 -24 24 25 -27 -28 -29 -30 -31
leaf_value=-0.061375732532138551 0.027207865077662846 0.053277277943508033 -0.012026017281395032 0.0043274397883868131 -0.0058217438579776116 0.034240345039722751 -0.020118043809392389 0.021302896578640328 0.048221420641599705 -0.012470797803662085 -0.12503058362923589 0.0027343618589670757 -0.0095044304054070182 -0.111438913501492 0.022079975075170968 0.050188665543852901 -0.039195642123652071 0.024544270517532649 -0.043595010530000422 -0.0096563577225898915 -0.044768923602751913 -0.1236733543966039 0.020889783208172422 -0.021047383682604649 -0.056376047914341157 0.01874306098435596 0.040949554201657482 -0.01605056020194898 0.032500460526572975 -0.13799384719700378
leaf_weight=71.847111627459526 76.044128090143204 173.80762347579002 44.548890396952629 30.619397819042206 94.469840615987778 14.201623030006887 35.78208900988102 82.506719008088112 47.404264934360981 8.9573545008897799 3.9116509556770316 15.37110713124275 6.1463532000780088 5.8393639773130417 62.081945508718491 50.448124192655087 7.2017830461263674 4.9212830364704123 107.82982179522514 35.927191331982613 5.6364038959145528 5.8012687861919403 21.785140112042427 58.43099045753479 87.562187388539314 5.6079075187444678 5.516910545527935 12.455724790692328 3.7165816873311988 3.7292215675115576
leaf_count=352 573 1480 273 203 613 112 214 594 378 66 21 90 37 30 449 420 41 28 590 242 39 32 139 328 438 34 43 89 28 24
internal_value=0.000216717 0.0256104 -0.0280398 -0.0156658 0.0125127 0.0437321 -0.0264086 0.000674007 0.0251252 -0.000629179 -0.0310537 -0.0404987 -0.0118277 -0.0591663 0.00783096 0.0316737 -0.0151504 -0.0490368 -0.0464458 0.0119113 0.0385856 -0.0768851 -0.00459947 -0.04686 -0.0399807 -0.0518546 -0.00236887 0.0211195 -0.0308187 -0.0493683
internal_weight=1190.11 626.807 563.303 339.854 363.837 262.97 233.224 224.889 89.1624 30.6048 202.604 127.113 106.456 11.9857 106.631 138.948 75.4916 17.9243 111.741 118.434 58.5576 13.0031 57.5672 223.448 151.601 93.1701 11.1533 88.4999 16.4032 12.6866
internal_count=8000 4768 3232 2080 2598 2170 1358 1516 690 230 1155 701 680 67 722 1082 454 101 611 836 460 73 353 1152 800 472 82 662 118 90
is_linear=0
shrinkage=0.05


Tree=8
num_leaves=31
num_cat=0
split_feature=14 14 1 9 21 18 2 23 19 23 1 14 11 26 18 5 7 14 1 23 5 7 5 19 19 12 21 9 14 23
split_gain=311.487 62.7874 44.7123 36.2779 29.2558 14.4573 13.1273 14.4188 12.615 11.3566 15.8799 11.2894 12.6307 11.1933 9.83726 9.39157 11.2426 9.06824 8.98228 13.0785 8.80504 11.6089 10.5229 8.65774 9.93884 8.53253 8.21989 8.01556 7.4439 7.31315
threshold=0.50446997050929221 0.35250068033292986 40494.500000000007 0.062310903746484507 106.26562500000001 1230.214285714286 71543.000000000015 26865968.294311527 627.68750000000011 27674975.791992191 58070.500000000007 0.26639159477187718 0.098651527745635112 0.72701829438136489 1291.0000000000002 66273.500000000015 59479.500000000007 0.71479502819980645 74548.000000000015 64887690.843750007 71714.000000000015 86814.500000000015 78146.500000000015 503.06250000000006 370.31250000000006 0.22675401697128897 65.140625000000014 0.07420214378539261 0.44733448673723841 59360819.358276375
decision_type=2 2 2 2 2 2 2 2 2 2 2 2 2 2 2 2 2 2 2 2 2 2 2 2 2 2 2 2 2 2
left_child=1 11 17 5 6 28 7 15 -8 10 14 -1 -13 -5 -7 16 -4 -2 29 -20 -9 22 23 24 -22 -15 -27 -14 -3 -6
right_child=2 3 4 13 18 9 8 20 -10 -11 -12 12 27 25 -16 -17 -18 -19 19 -21 21 -23 -24 -25 -26 26 -28 -29 -30 -31
leaf_value=-0.056806923623099151 0.032211988346902136 0.0080074260958372962 -0.09396178215079716 0.008945485152064182 0.025242385193252882 -0.073732965394976771 -0.073873641601806303 0.030922366856637698 0.017647899804300853 0.0015246138421446866 -0.09577100441078179 -0.010169078259277074 -0.036231089219929867 0.032822120659937774 -0.0018702611223960616 -0.077987703574865674 0.00096908496974267054 0.052257559955248972 -0.072769433761784144 0.027010883920402042 0.027019780065918122 0.032271533944827568 -0.10634269758027684 0.016810401849770808 -0.086078970942574051 -0.061726839349564744 -0.029819672719253617 -0.069321652069658179 0.036635390918323241 0.050174541948805822
leaf_weight=73.694093778729439 88.913664981722832 87.084938257932663 3.5198659971356419 17.232821822166443 62.496968522667885 5.8795847594738033 10.847559146583082 47.186862878501415 5.7667363584041587 79.514641657471657 7.6999808251857749 43.796582609415054 150.2589677721262 4.598992481827735 25.058100178837776 6.0462109893560401 27.374651096761227 154.37743779271841 4.7348807305097571 10.717666693031786 2.9271372854709679 16.014897257089615 3.2439585626125327 12.602205477654932 5.7746507003903389 25.595081359148026 95.495942622423172 20.83862940967083 30.716084346175194 55.558850929141045
leaf_count=352 690 586 23 117 471 38 66 356 40 514 42 249 799 26 151 38 185 1370 29 80 20 116 21 90 40 147 546 104 233 461
internal_value=0.000231462 -0.0223484 0.0293207 -0.00896447 0.0155003 0.00307701 -0.000357145 0.00520578 -0.042107 -0.00928116 -0.031519 -0.0399196 -0.0341284 -0.0288439 -0.0155275 -0.0209994 -0.00984655 0.0449317 0.0322838 -0.00356323 0.0162376 -0.000845188 -0.0224503 -0.00967599 -0.0480344 -0.0340251 -0.0365639 -0.0402613 0.015472 0.0369758
internal_weight=1185.57 667.464 518.104 378.876 274.813 235.953 141.305 124.69 16.6143 118.152 38.6377 288.588 214.894 142.923 30.9377 36.9407 30.8945 243.291 133.508 15.4525 87.7497 40.5628 24.548 21.304 8.70179 125.69 121.091 171.098 117.801 118.056
internal_count=8000 3904 4096 2400 2036 1564 995 889 106 745 231 1504 1152 836 189 246 208 2060 1041 109 643 287 171 150 60 719 693 903 819 932
is_linear=0
shrinkage=0.05


Tree=9
num_leaves=31
num_cat=0
split_feature=14 14 14 26 10 9 26 14 10 14 10 3 23 11 26 11 22 18 12 19 9 22 23 5 0 26 5 5 19 14
split_gain=283.643 55.7371 36.0044 32.5092 23.7954 20.6749 18.5848 16.3143 12.4763 11.5426 11.3111 9.59461 15.8087 10.0661 8.86381 7.92402 7.7153 9.07573 10.1362 7.62135 7.48407 8.56722 8.62759 8.3622 9.51843 9.85602 8.20811 8.40695 7.45116 7.41686
threshold=0.50446997050929221 0.33192300663034235 0.70966914610856169 0.72163724379954453 0.15246200059872422 0.062310903746484507 0.84038847742128742 0.41197695042505456 0.12327940332122507 0.96577552731660155 0.37122533990604289 77245.500000000015 63979352.836792 0.36917768598650075 0.91872479219346492 0.10949294021327531 25924342.529296879 870.357142857143 0.12232640087490566 474.68750000000006 0.015869237151598953 8461889.5546875019 26865968.294311527 71714.000000000015 48701.000000000007 0.85462489042544876 66273.500000000015 70191.000000000015 227.18750000000003 0.26639159477187718
decision_type=2 2 2 2 2 2 2 2 2 2 2 2 2 2 2 2 2 2 2 2 2 2 2 2 2 2 2 2 2 2
left_child=1 16 4 -3 -2 7 -4 15 -9 10 -8 20 13 19 -11 -5 17 29 -19 -13 -6 -22 26 -24 -25 -26 28 -28 -23 -1
right_child=2 3 6 5 11 -7 9 8 -10 14 -12 12 -14 -15 -16 -17 -18 18 -20 -21 21 22 23 24 25 -27 27 -29 -30 -31
leaf_value=-0.045365291255000662 0.037411616491507704 0.013447705075865429 0.052169006824398803 0.036587398321347935 -0.040614521408503933 -0.032867330467031067 0.032374088826476459 0.026872054103673639 -0.01100352031044935 0.046801093792879209 -0.02927956649321058 -0.13714716735744498 0.026254836760010045 -0.0014811806194167702 -0.0034124579246901199 -0.023884149141528331 0.034340071168019459 -0.12405686395173235 -0.048116044132541669 -0.049306932800125519 0.044145896984165003 -0.053698133864841117 0.041305402638767363 -0.069450299634211413 0.025497031598817221 -0.04144766329832919 -0.11435149211238725 -0.0047552324990079676 0.0075171115926628979 -0.018194317606815513
leaf_weight=46.747814789414406 84.067019812762737 106.6942250430584 161.2927929982543 5.7201019078493109 6.9484914168715468 140.42501196265221 13.49660746753216 44.59328942745924 42.429917827248573 44.432870879769325 16.575576238334179 3.9282434284687096 10.35501668602228 6.1487445235252371 10.955513328313826 102.33849096298218 3.3616883158683768 4.5568169057369223 122.99598248302937 6.6491070091724396 18.62066512554884 5.6163986399769774 27.057627446949482 3.8427638933062545 30.053941950201988 6.7290752008557311 3.3655257970094672 3.6447713226079941 43.259454682469368 54.27710996568203
leaf_count=220 701 745 1480 36 50 785 112 317 263 378 118 22 75 38 82 606 20 21 590 42 134 37 199 27 213 43 20 22 303 301
internal_value=0.000244219 -0.0210051 0.0284964 -0.0105928 0.0155237 -0.0182379 0.0421807 -0.00770728 0.00840505 0.0233293 -0.00160897 0.00508185 -0.0222972 -0.0523554 0.0368691 -0.0206831 -0.0408564 -0.0419623 -0.050829 -0.0819293 0.0100534 0.0125294 0.00776517 0.0197704 0.00542761 0.0132502 -0.00677428 -0.0573706 0.000482775 -0.0307673
internal_weight=1181.18 674.14 507.04 442.201 260.287 335.507 246.753 195.082 87.0232 85.4606 30.0722 176.22 27.0811 16.7261 55.3884 108.059 231.939 228.578 127.553 10.5774 149.139 142.19 123.57 67.6834 40.6258 36.783 55.8862 7.0103 48.8759 101.025
internal_count=8000 3904 4096 2752 1926 2007 2170 1222 580 690 230 1225 177 102 460 642 1152 1132 611 64 1048 998 864 482 283 256 382 42 340 521
is_linear=0
shrinkage=0.05


Tree=10
num_leaves=31
num_cat=0
split_feature=14 14 10 1 20 3 3 21 22 0 23 21 21 1 10 6 20 11 26 20 26 11 23 11 22 9 23 13 14 6
split_gain=258.885 59.1744 40.5224 31.5697 31.9947 18.0389 13.1316 14.621 12.9146 12.9126 20.1974 12.5675 10.7698 10.2047 10.1575 9.83356 9.82425 9.62042 9.00232 8.88494 8.53573 8.31556 8.27085 8.1957 12.9902 8.01126 7.80576 8.02585 8.14341 7.92224
threshold=0.53536202542250044 0.37011593302002427 0.11443196383977616 40494.500000000007 167.36458333333334 69505.500000000015 67422.500000000015 65.515625000000014 14845666.904296877 43305.500000000007 17702713.078857426 96.031250000000014 105.82812500000001 52922.000000000007 0.017484823076573102 64290.000000000007 162.01041666666671 0.19028919172995681 0.77769560383703951 140.78125000000003 0.83773872076531353 0.21731383644547039 25989779.304443363 0.14799839516662847 8916429.9980468769 0.0020636375020627001 33936912.688232429 0.23748224480647437 0.3379340406560839 102842.50000000001
decision_type=2 2 2 2 2 2 2 2 2 2 2 2 2 2 2 2 2 2 2 2 2 2 2 2 2 2 2 2 2 2
left_child=1 6 -3 -2 5 8 7 20 -5 16 15 17 -6 -12 -13 -11 -4 18 19 -8 25 -17 23 24 -9 -1 -16 -28 -29 -30
right_child=3 2 9 4 12 -7 11 22 -10 10 13 14 -14 -15 26 21 -18 -19 -20 -21 -22 -23 -24 -25 -26 -27 27 28 29 -31
leaf_value=-0.10432155660188108 0.044579252002660538 0.015438925667192523 -0.0054215660255226492 -0.1016957821058283 0.012201235037149859 -0.10077632664861547 -0.12698224229021157 -0.011822183579335893 0.001735924129704609 -0.1433038011134298 0.011582616461278604 0.055879646776790359 0.036687473410165428 -0.023965946847253804 -0.044150294603740481 0.00051363427025802441 0.053998001421364877 -0.12188675092656057 -0.028157335818436508 -0.055601248966782396 -0.1075050707002163 -0.082075873105924985 0.045712599310197138 0.016058633118781109 -0.064217790136893951 -0.031500949210666838 -0.052341609682350132 0.047134905843600701 0.032229894584758341 -0.048917520552349131
leaf_weight=4.0445949137210837 211.98668122291565 154.53789070248604 52.741476275026798 3.3414989560842505 76.674935340881348 6.2212064713239661 4.6893289089202872 64.031337529420853 31.168483734130859 4.0496290028095272 23.741155005991459 3.5388674885034552 108.38128115981817 134.89414831250906 43.768239125609398 4.5631775856018058 8.0132361650466901 4.9179623723030081 31.416124016046524 61.966040194034576 4.523038685321807 9.1773906946182233 6.0498204231262198 17.817770272493362 14.510219469666479 57.058773145079613 8.199502497911455 7.6215699464082745 4.8430564105510694 7.9367872029542923
leaf_count=21 1934 1110 335 21 581 33 21 349 214 22 155 18 906 769 213 25 58 24 150 298 23 45 39 97 80 298 42 42 30 47
internal_value=0.000254623 -0.0178024 -0.00448397 0.030722 0.0177118 -0.0224069 -0.0328401 -0.022803 -0.00827906 -0.017465 -0.0243112 -0.0422678 0.026542 -0.0186458 -0.0268314 -0.0748292 0.00241557 -0.0536451 -0.050223 -0.060623 -0.0412272 -0.0546483 -0.0109963 -0.0145567 -0.021502 -0.0363211 -0.030876 -0.0105622 0.00622924 -0.0181659
internal_weight=1176.43 738.651 391.718 437.774 225.787 40.7312 346.933 168.036 34.51 237.18 176.426 178.897 185.056 158.635 75.908 17.7902 60.7547 102.989 98.0715 66.6554 65.6264 13.7406 102.409 96.3593 78.5416 61.1034 72.3692 28.6009 20.4014 12.7798
internal_count=8000 4311 2519 3689 1755 268 1792 907 235 1409 1016 885 1487 924 392 92 393 493 469 319 342 70 565 526 429 319 374 161 119 77
is_linear=0
shrinkage=0.05


Tree=11
num_leaves=31
num_cat=0
split_feature=14 14 10 2 20 3 14 14 23 2 22 12 21 18 15 10 3 14 23 13 14 10 14 21 2 23 14 26 2 2
split_gain=236.656 52.3578 30.3572 27.4284 26.3233 16.6006 14.9348 13.1046 11.7814 12.9997 11.5423 9.79055 9.3853 10.2924 8.70801 8.31945 8.19538 8.08877 8.99706 8.00109 7.91497 8.99408 7.90887 8.91319 10.175 8.52739 9.19151 7.60633 7.33579 10.04
threshold=0.53536202542250044 0.35250068033292986 0.13599941291551562 44840.000000000007 167.36458333333334 69505.500000000015 0.42606391192938736 0.41637833161407928 59360819.358276375 55146.500000000007 20027815.794921879 0.26814878226656524 66.156250000000014 1261.9285714285718 1.2126338669077061 0.085067163365471557 101117.00000000001 0.50193113728766037 15335524.741088869 0.36213040304547267 0.66952074246838644 0.15870165383214918 0.24564100723117996 129.78125000000003 83502.000000000015 30196243.140502933 0.28222482176344454 0.86989956152422965 42902.000000000007 48715.500000000007
decision_type=2 2 2 2 2 2 2 2 2 2 2 2 2 2 2 2 2 2 2 2 2 2 2 2 2 2 2 2 2 2
left_child=1 22 6 20 5 10 15 11 9 -6 -5 -4 17 -14 -8 -3 -10 -9 -19 -16 21 -2 -1 24 -24 -26 -27 -15 -17 -30
right_child=3 2 7 4 8 -7 14 12 16 -11 -12 -13 13 27 19 28 -18 18 -20 -21 -22 -23 23 -25 25 26 -28 -29 29 -31
leaf_value=-0.052729502357276498 0.047962032036275221 0.0094085620449355003 -0.02664198947943159 -0.052681345199431996 0.036286068956888948 -0.091311052921289035 0.027407828930341844 -0.054092481960837928 0.044166392662808952 0.00071475285265146238 0.012615146579937304 -0.07673202342785114 0.036224501435138404 -0.0087176745136451159 -0.065836593233098303 0.024437006388598914 -0.039541146594676078 0.050660041476587217 -0.058425916092567226 0.0072570510468505283 0.04938134311945816 0.0079565480402015738 -0.028251296476621585 0.0097737686274286546 -0.10952682210621112 -0.10699609968346341 -0.024749806900509288 -0.058958296967125748 -0.072714206645620047 -0.013873365168089211
leaf_weight=42.84811170399189 27.217777147889137 60.394548118114471 25.173389628529549 9.1542834490537626 43.385841935873032 6.5146422237157813 82.511294491589069 22.475445672869686 74.320375852286816 62.953875906765461 25.961599349975586 15.927872776985167 12.003690198063849 95.489085093140602 4.6225969865918186 10.530611306428908 3.0437694266438475 4.5242720916867247 3.246536523103714 19.697112806141376 146.21763541549444 29.038776196539402 219.74064879119396 13.657561510801314 6.8023750931024578 4.4493548572063473 14.362334191799162 8.1789251714944822 8.1002150475978834 69.038145169615746
leaf_count=192 250 424 129 60 365 33 628 126 661 463 184 78 82 564 28 67 24 30 19 140 1432 217 1113 73 31 21 74 42 50 400
internal_value=0.000263068 -0.0167799 -0.00581579 0.0298935 0.0178925 -0.0180062 0.00540942 -0.021115 0.0260278 0.0152276 -0.00440685 -0.0460533 -0.0140906 -0.00760627 0.0196578 -0.00487108 0.0408731 -0.0388886 0.00508543 -0.00663631 0.0432494 0.0273118 -0.0328311 -0.0295393 -0.0317277 -0.061551 -0.0442028 -0.0126814 -0.0147082 -0.0200522
internal_weight=1171.58 743.774 441.914 427.809 225.334 41.6305 254.895 187.019 183.704 106.34 35.1159 41.1013 145.918 115.672 106.831 148.064 77.3641 30.2463 7.77081 24.3197 202.474 56.2566 301.86 259.012 245.355 25.6141 18.8117 103.668 87.669 77.1384
internal_count=8000 4311 2807 3689 1790 277 1737 1070 1513 828 244 207 863 688 796 941 685 175 49 168 1899 467 1504 1312 1239 126 95 606 517 450
is_linear=0
shrinkage=0.05


Tree=12
num_leaves=31
num_cat=0
split_feature=17 17 10 1 21 18 4 21 21 10 23 0 9 26 7 17 10 9 26 21 9 18 22 19 6 26 23 23 23 4
split_gain=216.5 46.6471 33.4803 29.7307 25.4994 13.0728 9.94596 12.4053 10.0776 9.90344 9.12668 9.12108 12.2275 10.6813 12.7348 7.99783 8.7332 8.65221 7.98396 7.8681 7.62274 7.58826 10.7982 7.56882 8.87857 7.22355 7.17898 7.93943 13.1135 7.87205
threshold=1.5353620254225004 1.3701159330200243 0.11443196383977616 40494.500000000007 105.82812500000001 1235.4285714285718 70840.000000000015 65.515625000000014 96.031250000000014 0.017484823076573102 18114176.177246097 47494.000000000007 0.20733478263981658 0.86559561285980779 86814.500000000015 1.7147950281998063 0.15870165383214918 0.022977647801949806 0.83773872076531353 125.07812500000001 0.0020636375020627001 1304.0714285714287 11176565.466796877 801.25000000000011 101762.00000000001 0.83646949950703919 25989779.304443363 21300237.781127933 19736108.08435059 68516.000000000015
decision_type=2 2 2 2 2 2 2 2 2 2 2 2 2 2 2 2 2 2 2 2 2 2 2 2 2 2 2 2 2 2
left_child=1 6 -3 15 10 -4 7 18 -8 -10 -5 -12 13 14 -13 16 -2 -18 20 21 -1 22 -7 24 -23 -26 27 28 29 -9
right_child=3 2 5 4 -6 19 8 26 9 -11 11 12 -14 -15 -16 -17 17 -19 -20 -21 -22 23 -24 -25 25 -27 -28 -29 -30 -31
leaf_value=-0.094774325991631117 0.0496339375284107 0.014434512416201532 0.0075884154903155948 -0.063202396150643783 0.033678126710114518 -0.02443182706395295 -0.047184215152149211 -0.018081064900211715 0.056362832478382419 -0.02740979079364475 0.01339523406511031 -0.025429438405361188 -0.071589731672796406 -0.061723218697147947 0.050860251717571227 0.050138199596931235 -0.058434054572735143 0.020958855736852161 -0.097689658072759533 0.006677791300027297 -0.027333670930781824 -0.020993341875325418 -0.12881400998553505 0.025621262863482094 -0.037884635876838178 -0.11458282586004474 0.044597454763211863 -0.050827397608750963 0.058766983501553405 0.036629039986662393
leaf_weight=4.5085357427597037 28.310345120728016 151.87304802983999 48.717994347214699 5.4979290664196006 108.41570697724819 6.1201058998703939 105.03091087937355 72.779398292303085 3.7058701068162909 73.481355458498001 69.881650634109974 10.528078675270086 8.1189939230680448 5.8725128769874564 11.386117793619631 133.2791643589735 3.8304459974169722 32.961427383124828 5.0034295916557303 22.066585503518581 59.293033629655838 137.9157941415906 4.1629598885774612 7.8116493821144095 9.4581373333930951 4.5450933873653403 5.7856803685426703 11.999974548816679 6.8864442110061637 7.2279358357191077
leaf_count=22 273 1110 326 33 939 35 487 387 19 372 534 77 51 34 87 1370 30 261 24 137 301 766 26 47 50 22 38 68 39 35
internal_value=0.000270104 -0.0158303 -0.00394933 0.0290901 0.0164201 -0.0155441 -0.0289461 -0.0203774 -0.0371041 -0.0233877 -0.000392959 0.00287134 -0.0176108 -0.00183875 0.0142089 0.0431217 0.0287572 0.0126932 -0.036869 -0.0214113 -0.0320994 -0.0250571 -0.0666895 -0.0223769 -0.024845 -0.0627789 -0.00953752 -0.0127046 -0.0074399 -0.0131385
internal_weight=1166.46 748.374 392.671 418.082 219.701 240.798 355.703 173.484 182.218 77.1872 111.285 105.787 35.9057 27.7867 21.9142 198.381 65.1022 36.7919 68.805 192.08 63.8016 170.014 10.2831 159.731 151.919 14.0032 104.679 98.8938 86.8938 80.0073
internal_count=8000 4311 2519 3689 1755 1409 1792 914 878 391 816 783 249 198 164 1934 564 291 347 1083 323 946 61 885 838 72 567 529 461 422
is_linear=0
shrinkage=0.05


Tree=13
num_leaves=31
num_cat=0
split_feature=14 14 1 9 20 14 11 4 26 11 22 21 22 21 20 20 21 2 20 21 22 20 0 2 19 2 9 26 6 26
split_gain=198.077 41.4138 28.7909 28.0661 26.0752 12.8673 17.4294 12.5707 9.88768 9.80124 9.78569 9.56723 8.57935 8.53911 8.14228 8.48524 8.11252 8.59197 12.4051 7.85513 9.69357 18.1384 7.16374 6.96597 10.0484 7.38749 6.96225 6.83407 6.68912 6.38899
threshold=0.53536202542250044 0.40790148582221669 40494.500000000007 0.064089388305198711 167.36458333333334 0.32630172157900356 0.19028919172995681 74149.000000000015 0.69964717692176503 0.21263386690770572 14845666.904296877 105.82812500000001 10162702.263671877 68.015625000000014 259.57291666666669 208.86458333333334 87.984375000000014 25539.000000000004 124.65625000000001 65.140625000000014 11443845.826171877 105.72916666666667 63086.500000000007 55679.000000000007 674.62500000000011 56924.500000000007 0.08343544327648536 0.80174971168569487 108946.50000000001 0.86989956152422965
decision_type=2 2 2 2 2 2 2 2 2 2 2 2 2 2 2 2 2 2 2 2 2 2 2 2 2 2 2 2 2 2
left_child=1 5 16 9 7 26 8 10 -7 -3 -4 23 -5 27 15 -11 17 -2 19 20 -19 -22 -13 -6 25 -25 -1 -14 -24 -15
right_child=2 3 4 12 11 6 -8 -9 -10 14 -12 22 13 29 -16 -17 -18 18 -20 -21 21 -23 28 24 -26 -27 -28 -29 -30 -31
leaf_value=-0.031378820161795488 0.052151928940121897 0.022962160068338962 -0.084964912444425181 0.0057010470837493875 0.02892868181801905 0.010728695891838105 -0.044515004299002535 -0.081869461200825333 -0.015956567702724377 -0.0081184815072236557 0.0014968567156311901 0.039593776371183755 -0.10176685834614776 -0.013657502780947099 -0.075579066221493546 0.042824573530037054 0.053754994281891934 0.0023649807693476993 0.036054326754384469 0.03014187251937946 0.014763541817993442 -0.17317786777719804 -0.054010055283730964 -0.092606146036051565 0.035376534971635724 -0.0095004805576344789 -0.085502919831624391 -0.033733253974635981 0.022981676122047805 -0.061986343825937887
leaf_weight=218.8167626708746 37.87221122533083 104.12236081808805 3.6581331938505164 31.459939725697041 30.759627103805542 45.602619737386703 43.925574839115143 6.8202876895666114 145.36738528311253 41.233290061354637 31.045488566160202 87.044653944671154 5.6544286310672787 78.482006840407848 3.6222317218780509 10.195022508502005 86.467279002070427 7.0971753597259539 48.012780152261257 7.2199822440743437 2.3567686900496483 2.8198219239711761 3.9676219373941413 2.9538256004452732 12.70749671012163 28.236399136483669 6.1075037866830817 10.63162226974964 9.7628233656287176 7.4912232458591452
leaf_count=1029 395 780 21 203 259 299 221 33 824 259 214 795 32 457 23 66 905 58 464 64 22 26 31 22 101 199 27 54 80 37
internal_value=0.000275849 -0.0149407 0.0282935 -0.000245772 0.0158159 -0.024301 -0.0161163 -0.0198131 -0.00958427 0.0139405 -0.00761714 0.0242491 -0.0171325 -0.0241572 -0.00312293 0.00198034 0.0424043 0.0330906 0.022397 -0.0112409 -0.0355842 -0.087613 0.0342992 0.0106832 -0.00210158 -0.0173709 -0.0328485 -0.0573542 0.000733739 -0.0178686
internal_weight=1161.51 752.712 408.802 292.892 216.956 459.82 234.896 41.5239 190.97 159.173 34.7036 175.432 133.719 102.259 55.0505 51.4283 191.846 105.379 67.5065 19.4937 12.2738 5.17659 100.775 74.6573 43.8977 31.1902 224.924 16.2861 13.7304 85.9732
internal_count=8000 4311 3689 1911 1755 2400 1344 268 1123 1128 235 1487 783 580 348 325 1934 1029 634 170 106 48 906 581 322 221 1056 86 111 494
is_linear=0
shrinkage=0.05


Tree=14
num_leaves=31
num_cat=0
split_feature=17 17 9 26 17 17 10 26 17 26 19 26 20 26 22 10 26 21 19 18 10 12 9 17 20 12 17 0 21 26
split_gain=181.494 41.2307 28.0132 22.2208 16.1888 15.8051 12.1258 11.5454 11.3544 14.7894 11.6076 11.9237 12.5941 9.60148 9.59069 9.55275 9.42621 9.00064 8.39851 8.60323 7.94687 10.3897 7.8092 7.39514 7.38715 7.22968 7.19366 6.89306 6.85164 8.06286
threshold=1.5535085050097244 1.4079014858222167 0.064089388305198711 0.82427526796980577 1.6849693292658534 1.9224190291656418 0.15246200059872422 0.81366017911275479 1.3263017215790038 0.70097008544642725 662.43750000000011 0.81777971284845108 168.55208333333334 0.91872479219346492 10462752.669921877 0.39299182747602557 0.79387175316708547 76.078125000000014 220.81250000000003 3718.6428571428573 0.27596846520983959 0.3673971693695321 0.036910196711661312 1.6651188533604906 173.84375000000003 2.5010489548390757 1.3834633929835924 59094.000000000007 68.015625000000014 0.86989956152422965
decision_type=2 2 2 2 2 2 2 2 2 2 2 2 2 2 2 2 2 2 2 2 2 2 2 2 2 2 2 2 2 2
left_child=1 8 7 4 6 15 -2 -3 -1 -10 11 12 22 -7 -4 18 17 -14 -5 23 21 28 -11 -20 -19 -15 -13 -26 -16 -30
right_child=3 2 14 5 -6 13 -8 -9 9 10 -12 26 16 25 20 -17 -18 24 19 -21 -22 -23 -24 -25 27 -27 -28 -29 29 -31
leaf_value=-0.03083615418213977 0.047378261232179003 0.021070805246970789 0.0076018779183714734 -0.062480674616409326 0.050339068053399799 0.043237036084279278 0.010232937190309654 -0.011244481886358867 0.010182706379055589 0.012989181740893847 0.010018569515706127 -0.034373354525299091 -0.095899482754840268 -0.046121317764017844 -0.055725769280198761 -0.037742413746779467 0.015662699481258802 -0.10151493102838122 0.00021467620142943801 -0.069924025469837545 -0.081536980641444573 0.025838669985380664 -0.020425812581919698 0.03431451620853862 0.0091549165767421201 0.036597847320062271 -0.079147013213614725 -0.040962172358091874 -0.015268883496331924 -0.084182758925267054
leaf_weight=227.54903584718704 33.911994367837906 134.48620666563511 35.528272293508053 4.0523510724306098 130.48177696019411 48.090199753642082 62.394022956490517 34.78950497508049 46.206719517707825 33.179041594266891 25.535262063145638 25.199016213417053 7.262160748243331 5.91133965551853 14.849126875400541 14.00080371648073 7.4982479214668265 3.8382033854722968 35.351173289120197 3.085246890783309 5.3602475821971884 11.479241259396074 36.964980155229568 28.895329855382442 9.0975976139307004 4.7753312438726425 13.930441081523893 27.905983239412308 80.350114740431309 4.4811058938503256
leaf_count=1056 346 1004 235 31 1428 475 488 221 305 190 153 126 38 41 78 100 39 21 250 24 24 68 199 246 55 43 69 149 476 22
internal_value=0.000281593 -0.0133306 0.000437586 0.0291055 0.0388623 0.0137566 0.0233128 0.0144294 -0.0228617 -0.0151928 -0.0213507 -0.026209 -0.0187083 0.0337106 -0.0151395 2.07025e-05 -0.0364811 -0.0446091 0.00742731 0.0116347 -0.0220736 -0.0192063 -0.00462008 0.0155513 -0.0354891 -0.00915832 -0.0503132 -0.0286405 -0.0243936 -0.0189092
internal_weight=1156.44 785.491 321.324 370.95 226.788 144.162 96.306 169.276 464.167 236.618 190.411 164.876 125.746 58.7769 152.048 85.3849 55.6022 48.1039 71.3841 67.3318 116.52 111.16 70.144 64.2465 40.8418 10.6867 39.1295 37.0036 99.6803 84.8312
internal_count=8000 4528 2128 3472 2262 1210 834 1225 2400 1344 1039 886 691 559 903 651 302 263 551 520 668 644 389 496 225 84 195 204 576 498
is_linear=0
shrinkage=0.05


Tree=15
num_leaves=31
num_cat=0
split_feature=14 14 10 26 14 13 10 18 3 21 7 5 7 26 11 26 13 13 10 9 9 26 11 2 21 1 18 19 9 22
split_gain=166.41 37.2929 25.9802 21.3872 16.0536 14.8828 11.6918 11.6271 9.02895 10.4046 9.26382 9.4786 10.1963 8.93429 8.70469 13.6512 7.84223 8.20439 9.45455 7.70909 7.62081 8.37671 7.96219 7.1184 9.68209 8.99527 7.01762 7.4501 6.89893 7.23694
threshold=0.55350850500972404 0.37011593302002427 0.11443196383977616 0.82427526796980577 0.6849693292658533 0.86047445105112652 0.15246200059872422 1180.7857142857144 67422.500000000015 65.515625000000014 84424.000000000015 76923.500000000015 81853.000000000015 0.91872479219346492 0.16291660802783534 0.72701829438136489 0.30701670366668299 0.36075618048755725 0.27596846520983959 0.30944692712725702 0.039600784402266311 0.799061526464517 0.2827145775810867 61101.000000000007 71.296875000000014 56775.500000000007 652.92857142857144 196.75000000000003 0.049182250295613704 3964122.3085937505
decision_type=2 2 2 2 2 2 2 2 2 2 2 2 2 2 2 2 2 2 2 2 2 2 2 2 2 2 2 2 2 2
left_child=1 8 26 4 6 19 -2 -4 9 28 11 12 -10 -7 -9 -16 -17 -18 20 23 -19 22 -22 24 -5 -25 -3 -28 -1 -30
right_child=3 2 7 5 -6 13 -8 14 10 -11 -12 -13 -14 -15 15 16 17 18 -20 -21 21 -23 -24 25 -26 -27 27 -29 29 -31
leaf_value=-0.022762047398400282 0.046756103709055988 0.043900936487294637 0.011792811094788932 -0.011795052139139596 0.049839062840377125 0.045392989755046201 0.009792424831914762 -0.080827483102858921 -0.077198280148452952 -0.0063023622477598532 -0.027385378165363822 -0.10413648208142279 -0.0031055883697569901 -0.0066146892681362632 0.031060066575926755 0.028707030732847062 -0.034003470353567891 0.017669482052214927 -0.072403638484582519 -0.034682676473383904 -0.026059279198514758 -0.003731666215122516 -0.10162735736126381 -0.076996367989193862 0.034151555327553755 -0.00059751984878462269 -0.059718617530376286 0.011986271744828865 -0.11550738149507259 -0.039289398559033184
leaf_weight=54.54114006459713 32.67651142179966 17.222906664013863 43.343309804797173 17.549031175673008 125.33194466680288 40.74440260976553 61.952324151992798 5.137711599469184 9.1108503639698082 106.46605119109154 162.84284950792789 8.1412318199872953 9.4694621413946134 10.356878399848936 14.994659110903738 8.4798225760459882 70.815177962183952 21.156737990677357 6.2970325648784629 12.885424502193926 34.080868594348431 59.531880870461464 3.8828824907541266 4.6148065552115467 33.076350890100002 23.334445759654045 3.7231284677982321 133.98454810678959 4.3231645524501792 11.13920436799526
leaf_count=267 346 142 302 140 1428 418 488 30 39 565 768 35 43 82 104 42 356 137 28 91 213 340 22 31 283 165 26 994 22 53
internal_value=0.000285501 -0.0126029 -0.00248473 0.0283248 0.0381019 0.0132396 0.0225564 -0.0119151 -0.0242861 -0.0161471 -0.0318629 -0.0591489 -0.0394369 0.0348524 -0.0164948 -0.0149872 -0.0183678 -0.0204069 -0.012701 0.0011639 -0.00953251 -0.0154354 -0.0337883 0.00704236 0.0182244 -0.013212 0.0138109 0.0100476 -0.0311196 -0.0605994
internal_weight=1151.21 788.685 422.651 362.522 219.961 142.561 94.6288 267.72 366.034 176.47 189.564 26.7215 18.5803 51.1013 224.377 219.239 204.244 195.765 124.949 91.4601 118.652 97.4956 37.9638 78.5746 50.6254 27.9493 154.931 137.708 70.0035 15.4624
internal_count=8000 4528 2736 3472 2262 1210 834 1574 1792 907 885 117 82 500 1272 1242 1138 1096 740 710 712 575 235 619 423 196 1162 1020 342 75
is_linear=0
shrinkage=0.05


Tree=16
num_leaves=31
num_cat=0
split_feature=14 1 20 14 10 1 23 23 26 14 14 14 10 23 22 18 4 18 8 9 14 1 5 19 12 20 13 18 12 20
split_gain=153.052 34.4694 26.3175 24.5579 20.3343 11.3599 15.4272 11.4092 10.1987 9.1145 8.10517 8.07406 11.3925 8.66289 10.8026 8.50097 8.04685 7.84545 10.6295 9.68531 8.16447 7.49032 7.4206 7.08914 8.9753 7.45995 7.05163 7.01126 6.72751 6.55265
threshold=0.50446997050929221 41100.500000000007 164.73958333333334 0.33192300663034235 0.085067163365471557 69344.500000000015 64887690.843750007 60351225.811279304 0.66880907184291238 0.7462647621668187 0.36466755333815731 0.41197695042505456 0.16835783866557616 22468746.308593754 3483993.3359375005 806.71428571428589 66391.000000000015 1736.7857142857144 77078.000000000015 0.11450696440466486 0.5938290298085519 52337.500000000007 106666.50000000001 558.43750000000011 0.33471753130745957 190.23958333333334 0.45664743849536277 1644.7857142857147 0.21078876706924163 130.34375000000003
decision_type=2 2 2 2 2 2 2 2 2 2 2 2 2 2 2 2 2 2 2 2 2 2 2 2 2 2 2 2 2 2
left_child=3 9 17 -1 10 7 26 16 -6 27 -5 13 -13 14 -10 -16 -4 19 20 -3 -19 -22 23 25 -25 -14 -7 -2 -15 -17
right_child=1 2 5 4 8 6 -8 -9 11 -11 -12 12 22 28 15 29 -18 18 -20 -21 21 -23 -24 24 -26 -27 -28 -29 -30 -31
leaf_value=-0.026703124370049167 0.030956508541876062 -0.0048395583013331805 0.028244343786652672 -0.0057820550856300477 0.031332467946377333 -0.092776976184535412 0.023529193870887144 0.045316818865108396 -0.096812757988709516 0.04840825789698152 0.020746644515919566 0.0009006496812468467 -0.031482492849081917 -0.074903846229779678 0.053801295302326663 -0.034145563345103887 0.0024732998907543886 0.028983926970659876 -0.06789090210569064 -0.12352606621493474 -0.0027831355117144429 -0.072834785360551643 0.042249927934096036 -0.10793844631479572 -0.013446068435838232 0.018313046058544637 -0.020495599493240296 -0.021373464766394547 -0.030800023459122017 -0.0017578909103524545
leaf_weight=251.71437452733517 78.994155876338482 3.03802566230297 63.509859673678875 47.364061191678047 12.157486334443091 5.22806537896395 17.248775467276573 45.468616746366024 3.6589402705430976 110.90329663455486 73.427180700004101 117.00853128731251 39.146445915102959 10.321446761488913 5.0518883615732184 24.420820832252502 57.909186579287052 12.820613801479341 7.5236341431736937 3.9587305709719658 13.334118239581587 5.345826491713523 3.7923925518989554 5.8924998641014081 4.3817221075296402 9.3101174980401975 9.5159124657511693 6.965192809700965 53.282855376601219 43.319786071777344
leaf_count=1152 732 21 554 273 89 29 148 470 20 1317 579 760 203 53 31 123 435 79 39 23 93 30 20 30 24 51 61 65 268 228
internal_value=0.000287943 0.0233588 0.0108366 -0.014184 -0.00722044 0.0187212 -0.00857159 0.0239533 -0.0136159 0.0389365 0.0103443 -0.0153258 -0.00830641 -0.0243237 -0.0129814 -0.00876761 0.0159532 -0.0232367 -0.0144953 -0.0719918 -0.00174222 -0.0228305 -0.0255369 -0.029914 -0.0676396 -0.0219151 -0.0461258 0.0267163 -0.037957 -0.0134338
internal_weight=1146.01 441.764 244.901 704.251 452.536 198.88 31.9928 166.888 331.745 196.863 120.791 319.587 179.532 140.056 76.4514 72.7925 121.419 46.0209 39.0242 6.99676 31.5006 18.6799 62.5232 58.7308 10.2742 48.4566 14.744 85.9593 63.6043 67.7406
internal_count=8000 4096 1982 3904 2752 1697 238 1459 1900 2114 852 1811 1088 723 402 382 989 285 241 44 202 123 328 308 54 254 90 797 321 351
is_linear=0
shrinkage=0.05


Tree=17
num_leaves=31
num_cat=0
split_feature=17 17 1 9 21 17 18 6 11 21 3 20 21 20 20 21 18 11 13 20 8 21 21 5 21 23 5 5 7 5
split_gain=140.014 26.6367 25.7171 21.7387 20.7354 9.70256 10.5552 9.37697 9.31052 8.51013 8.33986 11.1411 8.21595 7.58292 7.43546 7.42082 7.56254 9.30845 7.94924 7.10722 12.5443 8.78408 6.89932 6.66652 5.61215 5.4838 12.8683 8.66258 8.94917 5.16603
threshold=1.5353620254225004 1.4143924954998732 40494.500000000007 0.064089388305198711 105.82812500000001 1.2663915947718773 861.64285714285722 56915.500000000007 0.21263386690770572 87.984375000000014 27726.500000000004 124.65625000000001 112.85937500000001 259.57291666666669 208.86458333333334 65.140625000000014 1389.0000000000002 0.51373900072523149 0.50054568773103714 213.36458333333334 85052.500000000015 87.359375000000014 86.546875000000014 113014.00000000001 119.51562500000001 63979352.836792 77648.000000000015 79593.000000000015 105022.00000000001 101562.00000000001
decision_type=2 2 2 2 2 2 2 2 2 2 2 2 2 2 2 2 2 2 2 2 2 2 2 2 2 2 2 2 2 2
left_child=1 5 9 8 7 29 24 -4 -3 10 -2 15 -8 14 -10 16 18 -18 -12 20 -9 -22 -13 25 -7 26 -6 -28 -29 -1
right_child=2 3 4 -5 23 6 12 19 13 -11 11 22 -14 -15 -16 -17 17 -19 -20 -21 21 -23 -24 -25 -26 -27 27 28 -30 -31
leaf_value=-0.030623837383010933 0.05051495737404739 0.023714884509295157 -0.091051619823757562 -0.014189977722182466 0.039861776448345002 -0.004393468780534664 -0.024135279934049889 -0.00018328693968028276 -0.0071161683035485465 0.052391695022797759 -0.050950335734854815 0.037891679066080194 -0.0022640526552159287 -0.071568360962799601 0.041470860239310951 0.02856203531257558 -0.13789119244062051 -0.0061633269874358989 0.057835724643366261 0.021944943487206197 -0.018805097229733014 -0.12305856422270352 -0.050691485880310409 -0.035843148244668985 0.052510731355417839 0.046404193426251961 -0.097658562954115014 0.019937398237564921 -0.078343768167285194 -0.073776357700973266
leaf_weight=74.539170697331429 32.170741215348244 90.270046524703503 2.8540907502174369 131.82062569260597 34.625040538609028 97.228617042303085 254.50013304501772 68.436170510947704 39.711566880345345 74.462221592664719 3.6385705620050448 41.288288660347462 51.653969123959541 3.7127097845077506 9.8217149525880796 6.9815979972481719 3.0482772141695023 2.3946305736899376 3.1185158640146255 28.854367554187775 4.4859863594174367 3.6762705966830254 2.3216838762164107 3.6811160147190085 4.5350218862295142 41.226096704602242 2.5499689131975201 12.572041392326353 2.8393435180187216 7.6471468061208716
leaf_count=320 387 717 17 758 329 545 1284 500 251 905 29 446 286 23 66 67 25 24 28 253 25 21 23 31 29 440 21 100 18 32
internal_value=0.000290097 -0.0119749 0.02531 0.000469317 0.0134332 -0.0189659 -0.0158081 -0.00162466 0.013934 0.0397368 0.0298138 0.0192078 -0.0204452 -0.00264793 0.00251792 -0.0125488 -0.036075 -0.079937 -0.000743629 0.000795693 -0.00717116 -0.0657607 0.0331757 0.0301611 -0.00185757 0.0327511 0.0220475 -0.012294 0.0018304 -0.034639
internal_weight=1140.67 765.441 375.225 275.337 205.8 490.104 407.918 108.307 143.516 169.425 94.9623 62.7916 306.154 53.246 49.5333 19.1816 12.2 5.44291 6.75709 105.453 76.5984 8.16226 43.61 97.4936 101.764 93.8125 52.5864 17.9614 15.4114 82.1863
internal_count=8000 4311 3689 1815 1755 2496 2144 816 1057 1934 1029 642 1570 340 317 173 106 49 57 799 546 46 469 939 574 908 468 139 118 352
is_linear=0
shrinkage=0.05


Tree=18
num_leaves=31
num_cat=0
split_feature=14 14 9 26 14 13 10 26 2 7 21 26 3 7 7 0 24 13 10 1 20 1 1 21 23 9 10 12 12 26
split_gain=128.435 26.9871 21.8419 19.3641 15.9903 12.7395 11.2946 10.8518 9.40634 14.2846 9.1879 8.45267 8.39248 11.2159 8.18183 7.54375 8.11595 6.91459 6.83322 6.93995 6.58698 6.57567 8.22515 6.52083 8.71788 7.2272 6.37368 7.62773 7.12036 10.0297
threshold=0.55350850500972404 0.41439249549987295 0.064089388305198711 0.82427526796980577 0.6849693292658533 0.86047445105112652 0.15246200059872422 0.81366017911275479 83502.000000000015 102248.00000000001 113.26562500000001 0.91872479219346492 67221.000000000015 80730.500000000015 115172.50000000001 59535.000000000007 -1.0000000826903672e-10 0.17319298559255009 0.39299182747602557 79399.500000000015 138.91666666666671 41100.500000000007 42519.000000000007 110.10937500000001 40673821.05163575 0.2733403708648634 0.27596846520983959 0.3673971693695321 0.3445055172708732 0.8024536050431087
decision_type=2 2 2 2 2 2 2 2 2 2 2 2 2 2 2 2 2 2 2 2 2 2 2 2 2 2 2 2 2 2
left_child=1 8 7 4 6 18 -2 -3 9 10 12 -7 15 -14 -10 16 17 -1 19 -5 -18 -4 -23 24 25 -20 27 28 -24 -30
right_child=3 2 21 5 -6 11 -8 -9 14 -11 -12 -13 13 -15 -16 -17 20 -19 23 -21 -22 22 26 -25 -26 -27 -28 -29 29 -31
leaf_value=-0.058829994400336164 0.045281155426450809 0.021184508580138151 0.011580997965834127 0.010404697062697647 0.048507221295105492 0.043686677758697501 0.007629505791049449 -0.011565429680257429 -0.052281062589659172 0.042524085562799026 0.0084025482292299936 -0.0078690787422677332 -0.091166203219328501 -0.025226223893974931 -0.014838583520898663 0.030750551946909083 -0.1072981697310572 -0.011297508809436051 0.043242744426279879 -0.072602395360170935 -0.022102215078900971 -0.10487538218542575 -0.011484436230404418 0.031362260199499767 -0.10525977936475779 -0.047217603940477602 -0.067098278361268401 0.027575057583724302 -0.11888641518179573 -0.02501330176444826
leaf_weight=7.9355043470859519 29.874499648809433 121.15179800987244 23.858285963535309 69.736733198165894 112.11298131197691 37.076454311609268 59.763019293546677 31.968690112233162 34.573942229151726 10.413430228829382 33.430927775800228 10.120310947299002 6.7533670067787162 142.9659403860569 25.242553621530533 9.4164689183235151 4.1817635595798475 213.49887140840292 3.2610622718930262 2.6123866960406295 4.9594272747635841 2.6102662906050673 92.118067614734173 3.7610067129135123 3.9952871054410926 6.83733069896698 5.6431503444910041 10.688772954046724 3.7905075252056113 11.412285290658472
leaf_count=34 346 949 165 560 1428 418 488 205 155 61 189 82 28 659 130 45 21 1146 28 18 28 15 525 33 23 48 24 64 22 63
internal_value=0.000292216 -0.0106786 0.00105999 0.026061 0.0359206 0.0115838 0.0201781 0.0143469 -0.0178935 -0.0153292 -0.0167529 0.0326317 -0.0189108 -0.0282006 -0.0364803 -0.0131154 -0.0149069 -0.0130009 0.000571036 0.00740747 -0.0610763 -0.0124924 -0.0170412 -0.0271309 -0.0427403 -0.0180053 -0.0151871 -0.0127047 -0.0167164 -0.0484187
internal_weight=1135.77 796.614 303.242 339.151 201.751 137.401 89.6375 153.12 493.372 433.556 423.142 47.1968 389.711 149.719 59.8165 239.992 230.576 221.434 90.2038 72.3491 9.14119 150.121 126.263 17.8547 14.0937 10.0984 123.653 118.01 107.321 15.2028
internal_count=8000 4528 2032 3472 2262 1210 834 1154 2496 2211 2150 500 1961 687 285 1274 1229 1180 710 578 49 878 713 132 99 76 698 674 610 85
is_linear=0
shrinkage=0.05


Tree=19
num_leaves=31
num_cat=0
split_feature=14 2 14 23 26 2 23 20 2 19 2 12 11 14 3 2 26 9 23 5 26 10 20 2 5 22 4 19 19 7
split_gain=118.284 26.2557 18.3874 18.3684 18.059 15.5109 11.2262 9.18809 13.3345 8.59313 9.88559 9.65763 9.90452 9.54875 9.49645 9.47972 7.46164 8.17041 7.21849 7.19433 6.61507 6.57343 6.49743 6.83632 7.18047 6.49188 7.38651 7.62314 6.46682 7.21116
threshold=0.50446997050929221 44581.000000000007 0.32630172157900356 62842093.893310554 0.72163724379954453 71237.000000000015 17551792.091308597 151.88541666666671 25539.000000000004 662.43750000000011 62057.500000000007 0.21078876706924163 0.19028919172995681 0.36466755333815731 68760.500000000015 66670.500000000015 0.81856000858188793 0.018143190492758501 33256343.148315433 113014.00000000001 0.79689943236794247 0.13397500386123126 164.73958333333334 55146.500000000007 82571.500000000015 18298350.513671879 62921.000000000007 365.68750000000006 485.43750000000006 84662.000000000015
decision_type=2 2 2 2 2 2 2 2 2 2 2 2 2 2 2 2 2 2 2 2 2 2 2 2 2 2 2 2 2 2
left_child=2 7 -1 5 -4 6 -3 8 -2 10 16 18 28 -14 -15 -16 17 -6 -12 -5 -17 -22 -8 -24 -25 26 27 -18 29 -13
right_child=1 3 4 19 9 -7 22 -9 -10 -11 11 12 13 14 15 20 25 -19 -20 -21 21 -23 23 24 -26 -27 -28 -29 -30 -31
leaf_value=-0.023505638324196308 0.05010200159108609 -0.062667473802424489 0.011261227020408682 0.039018707316731911 0.022087998197203147 -0.034339487465492612 -0.0068515380103522858 0.047331858463883866 0.0087813476116688043 0.0058086157648460229 -0.085615968760931097 -0.025878912617785129 -0.099880059579394775 -0.067429076751994124 0.03726366943705868 -0.0011125931295491421 -0.042737508518558037 -0.0079874531939602891 -0.006220238208093495 -0.031354494724820707 -0.084496724192765674 -0.028190828576400262 0.031329423724490511 0.00091739005093151467 0.052376897184972397 0.016062137191631572 -0.080815989954663145 0.0090125496541447209 -0.018141313711285245 0.045144630575962796
leaf_weight=236.27820470929146 31.265402629971504 5.3396754413843146 110.57504142075777 57.374759301543236 29.154022336006165 24.215490438044071 38.063171610236168 90.197404511272907 51.993580959737301 58.237580567598343 10.516503632068632 5.1436174511909512 4.6852147728204718 11.860220134258268 6.7627445608377448 18.899683609604836 18.738408327102665 100.17250434309244 3.9336215108633033 3.8771708384156218 6.1767912879586211 32.234308987855911 48.295663572847843 60.175780467689037 7.6395535022020331 7.9761266708374015 6.7848163247108451 11.473570331931112 20.935150146484375 11.710695892572401
leaf_count=1056 398 29 783 623 190 141 256 1132 488 368 48 25 20 59 38 104 98 598 20 32 33 153 465 470 62 46 32 67 107 59
internal_value=0.000292055 0.021391 -0.0121033 0.0108522 -0.0064431 0.00294702 0.00860741 0.0362757 0.0242981 -0.0118007 -0.0151395 -0.0254136 -0.0207043 -0.0306049 -0.0263305 -0.0187231 -0.00730814 -0.00120756 -0.0640028 0.0345642 -0.0253296 -0.0372452 0.0110759 0.0169529 0.00671442 -0.0248513 -0.0336718 -0.0230844 0.000417383 0.0234696
internal_weight=1130.69 418.438 712.249 244.981 475.971 183.729 159.514 173.456 83.259 365.396 307.158 132.859 118.408 80.619 75.9337 64.0735 174.299 129.327 14.4501 61.2519 57.3108 38.4111 154.174 116.111 67.8153 44.9729 36.9968 30.212 37.7895 16.8543
internal_count=8000 4096 3904 2078 2848 1423 1282 2018 886 2065 1697 666 598 407 387 328 1031 788 68 655 290 186 1253 997 532 243 197 165 191 84
is_linear=0
shrinkage=0.05


Tree=20
num_leaves=31
num_cat=0
split_feature=14 14 9 26 14 13 26 15 2 7 4 26 21 13 20 18 19 19 12 18 21 23 23 26 12 20 13 15 18 20
split_gain=108.161 22.2043 18.7932 17.9701 15.8572 11.3615 9.45675 9.26352 8.12242 12.7416 8.21582 8.07387 7.93791 7.32427 6.66122 6.48742 6.47861 8.48661 7.95992 5.93312 8.10457 6.27301 6.10907 6.21606 5.65208 5.62798 6.05966 6.37353 6.50713 5.3996
threshold=0.55350850500972404 0.41439249549987295 0.064089388305198711 0.82427526796980577 0.6849693292658533 0.86047445105112652 0.81366017911275479 1.3091859794690788 83502.000000000015 102248.00000000001 93315.000000000015 0.91872479219346492 113.26562500000001 0.17319298559255009 152.98958333333334 840.78571428571433 227.18750000000003 393.81250000000006 0.41680672218441833 3718.6428571428573 129.78125000000003 55240220.237182625 47340940.277099617 0.8524974650865198 2.5010489548390757 195.57291666666669 0.21189764369880451 1.1052672720508812 1736.7857142857144 175.86458333333334
decision_type=2 2 2 2 2 2 2 2 2 2 2 2 2 2 2 2 2 2 2 2 2 2 2 2 2 2 2 2 2 2
left_child=1 8 6 4 7 19 -3 -2 9 12 -10 -7 13 14 -1 -15 -9 -18 -19 21 -21 22 -5 -24 -13 -12 -27 -28 -29 -8
right_child=3 2 -4 5 -6 11 29 16 10 -11 25 24 -14 15 -16 -17 17 18 -20 20 -22 -23 23 -25 -26 26 27 28 -30 -31
leaf_value=-0.062304533527246242 0.02875310818856873 0.02012152056846056 -0.011351781535419901 0.0043210155261103221 0.047630631013917527 0.042524784061222121 -0.025891803370866252 -0.071614608108607453 -0.073048037475315616 0.041534184150529598 -0.053189644408458171 -0.041440274524624073 0.0084053049006434632 -0.0052928214317401329 -0.0060968819405735793 -0.019660931608364948 0.037792567926301007 -0.074897183386377505 0.010577178439844622 -0.080639194370976441 0.017479220010157091 0.045530467829419871 0.0074927718908533673 -0.091259179269152987 0.034123439290764071 -0.051975199262745513 0.05648734041036288 -0.041799594926850904 0.0096776917511850191 0.016551542506510752
leaf_weight=16.037611722946171 62.778219051659107 118.59721695631742 151.23632237315178 66.171483241021633 104.07979747653008 34.850492410361767 20.514255039393902 3.4133236780762699 10.668446511030195 10.199111513793467 12.889560431241987 5.6490473076701146 33.355589538812637 113.18790074437857 7.8517825901508322 256.81056325882673 9.3779624253511447 4.8464065045118314 6.2191262096166611 4.9723672047257406 3.6491145566105843 8.3619392067193967 2.9033864960074416 3.5322327986359596 4.4039457961916924 8.4819742888212186 3.7951921820640591 11.000692039728166 13.89092582464218 11.805947698652743
leaf_count=67 643 949 878 525 1428 418 128 26 46 61 55 39 189 598 33 1263 75 39 51 29 31 79 24 22 43 36 20 57 71 77
internal_value=0.000291422 -0.00958898 0.00110477 0.0246066 0.0344767 0.0106106 0.0135876 0.0186742 -0.016075 -0.0136963 -0.0332105 0.0311377 -0.0150147 -0.016998 -0.0438306 -0.0152655 -0.00784798 0.00279873 -0.0268583 0.000322275 -0.0391098 0.00452095 -0.000201995 -0.0467079 -0.00833784 -0.0247203 -0.0148475 -0.00386979 -0.0130724 -0.0103881
internal_weight=1125.53 800.323 302.154 325.209 190.715 134.494 150.917 86.635 498.169 437.443 60.7268 44.9035 427.243 393.888 23.8894 369.998 23.8568 20.4435 11.0655 89.5905 8.62148 80.969 72.6071 6.43562 10.053 50.0583 37.1688 28.6868 24.8916 32.3202
internal_count=8000 4528 2032 3472 2262 1210 1154 834 2496 2211 285 500 2150 1961 100 1861 191 165 90 710 60 650 571 46 82 239 184 148 128 205
is_linear=0
shrinkage=0.05


Tree=21
num_leaves=31
num_cat=0
split_feature=17 17 26 26 17 10 11 9 18 9 17 26 10 8 19 1 21 17 26 17 21 12 21 26 1 10 26 19 22 26
split_gain=99.3874 21.1972 18.3441 17.9334 15.282 11.6049 11.3985 10.7269 9.83226 7.85344 7.70461 7.30961 6.50009 12.0462 8.16091 6.35421 7.42385 6.12424 6.05346 5.8926 6.24485 5.56847 13.2465 5.41616 5.38141 5.06993 5.91336 5.03242 5.93662 8.59195
threshold=1.5654311062338728 1.3525006803329302 0.83968249353348423 0.66880907184291238 1.7265113997711279 0.15246200059872422 0.56427102799883277 0.064089388305198711 4161.2142857142871 0.022977647801949806 1.4163783316140797 0.91872479219346492 0.39299182747602557 74538.500000000015 230.18750000000003 41100.500000000007 65.140625000000014 1.6651188533604906 0.81366017911275479 1.506464963151896 56.171875000000007 0.27208479659062618 83.359375000000014 0.68152558919068362 34398.500000000007 0.13290390873039379 0.80744920111172824 597.12500000000011 35903526.865234382 0.84919463470911083
decision_type=2 2 2 2 2 2 2 2 2 2 2 2 2 2 2 2 2 2 2 2 2 2 2 2 2 2 2 2 2 2
left_child=1 -1 4 -3 5 -2 8 10 12 -7 21 -8 14 -14 -4 19 25 -16 -12 20 -9 23 -23 -5 -22 -17 -27 28 29 -20
right_child=2 3 6 7 -6 9 11 15 -10 -11 18 -13 13 -15 17 16 -18 -19 27 -21 24 22 -24 -25 -26 26 -28 -29 -30 -31
leaf_value=-0.018670162078303198 0.047531570498772463 0.031890105061876159 -0.068669954716212581 -0.054009544668407176 0.047597791915360704 -0.04646509260503668 0.037756598175828729 -0.044416634071788301 -0.099103148648858483 0.01436679024957517 0.01643074318363022 -0.0088064301365342323 -0.0028667599660629245 -0.12755416580024695 -0.0072796736996600499 0.0015868383966131689 -0.012562010312773656 0.030210991138041449 -0.034520544087718728 0.03700927015351408 -0.030713131472810254 0.022461461059684221 -0.10013801807522255 -0.0015496781422672868 0.052846457374328984 -0.085117990355542725 -0.029440346712034327 0.016132730519745078 -0.080978481423710683 0.043746046195942585
leaf_weight=326.90349964797497 27.792183585464954 35.712245263159275 3.4671325385570517 5.1856000274419776 98.150954365730286 5.7506391108036032 34.595450460910797 7.2117790132761028 2.7533606737852088 68.563424415886402 100.22725469619036 11.143415324389933 6.3452099710702878 2.7882789298892021 22.301296643912792 5.2304425463080433 158.14347518235445 21.293853893876076 11.646438084542757 11.298128902912138 3.1967120543122274 3.9774869829416257 4.9392499625682831 96.11216788738966 4.8504659086465836 8.5030996128916758 10.858870729804037 13.012680456042288 3.6988195478916159 5.0171071514487258
leaf_count=1504 356 300 26 35 1394 51 398 40 18 605 805 88 49 17 153 28 872 193 73 91 21 20 25 574 31 41 50 89 21 32
internal_value=0.000289953 -0.00881412 0.0246433 -0.00222281 0.0335099 0.0199678 0.0076822 -0.00491145 -0.00685064 0.00965944 0.00221629 0.0264124 -0.00233064 -0.0409314 0.0051607 -0.0132149 -0.0165362 0.0110325 0.0102891 0.00963816 -0.0106281 -0.00756961 -0.0454501 -0.00423519 0.0196527 -0.0420925 -0.053892 -0.00815452 -0.0236754 -0.0109558
internal_weight=1120.67 815.726 304.945 488.822 200.257 102.106 104.688 453.11 58.9491 74.3141 243.817 45.7389 56.1958 9.13349 47.0623 209.293 182.736 43.5952 133.602 26.5571 15.259 110.215 8.91674 101.298 8.04718 24.5924 19.362 33.375 20.3624 16.6635
internal_count=8000 4652 3348 3148 2406 1012 942 2848 456 656 1674 486 438 66 372 1174 991 346 1020 183 92 654 45 609 52 119 91 215 126 105
is_linear=0
shrinkage=0.05


Tree=22
num_leaves=31
num_cat=0
split_feature=14 1 21 14 26 21 2 20 20 7 7 2 19 20 2 21 4 21 26 20 20 21 26 12 3 9 26 9 21 1
split_gain=91.222 21.9771 17.1351 16.5194 16.302 8.95369 8.38447 9.77321 6.98207 7.06043 7.77728 6.80281 9.26606 8.58729 8.31981 6.66977 6.18319 6.09274 7.42107 6.2967 6.07137 5.96914 5.91635 6.31977 8.855 5.75432 8.0902 5.43639 5.39971 5.2372
threshold=0.53536202542250044 40494.500000000007 105.82812500000001 0.32630172157900356 0.72163724379954453 87.984375000000014 25539.000000000004 124.65625000000001 213.36458333333334 82992.000000000015 59479.500000000007 42902.000000000007 662.43750000000011 119.81250000000001 85596.500000000015 86.546875000000014 103198.00000000001 65.140625000000014 0.80506225449658553 104.56250000000001 161.44791666666671 91.859375000000014 0.76128227872397336 0.36297253884093439 67887.000000000015 0.020106126684465302 0.76354602745726285 0.08343544327648536 136.15625000000003 62121.500000000007
decision_type=2 2 2 2 2 2 2 2 2 2 2 2 2 2 2 2 2 2 2 2 2 2 2 2 2 2 2 2 2 2
left_child=3 5 8 27 -5 6 -2 17 9 10 -3 13 14 25 28 -9 -16 18 -8 -20 -11 -22 -4 24 -24 -6 -27 -1 29 -13
right_child=1 2 22 4 11 -7 7 15 -10 20 -12 12 -14 -15 16 -17 -18 -19 19 -21 21 -23 23 -25 -26 26 -28 -29 -30 -31
leaf_value=-0.018823004759358396 0.04870302535713638 -0.080858764083279744 0.048835679140986327 0.012030102126549348 0.027839018213412739 0.050923004060046587 0.038342027463576636 0.034584796261019006 0.019194724929627271 -0.085990315238710938 0.0019349064699899579 -0.009423750810508405 0.0056524653690537309 0.033866161500432784 -0.066989917734718213 -0.054134652065886517 -0.0044986112859091067 0.025099484793186175 -0.014978806731396857 -0.096057241084398962 0.004342994646519222 -0.066290540046175905 0.036912402063080232 0.024149821447932127 -0.088868396875991032 -0.084236408295284712 -0.0072445712141859719 -0.065203424046663835 0.026904072071735015 -0.024303101683582393
leaf_weight=233.58445625007153 27.238947860896587 2.9834444746375075 23.056073792278767 118.97223011404276 8.6167225241661054 62.046664498746395 2.6698670759797123 36.118706040084362 26.922753788530827 4.7979259788990047 57.564913704991341 183.3794434890151 65.174383521080017 19.740813717246056 12.774192005395891 2.2504164129495612 5.7356441468000403 6.3103182464838019 4.7421098202466947 4.8374419957399368 8.5757374316453916 4.5930978283286086 2.5828724652528754 59.917165242135525 3.0534805431962013 4.0501039922237423 21.656565599143505 6.4936704337596884 8.2237468883395177 87.288674026727676
leaf_count=1029 395 17 282 868 58 905 26 441 253 21 444 1027 419 158 59 23 28 64 40 40 51 30 27 604 26 26 135 27 52 425
internal_value=0.000289158 0.0218733 0.0108429 -0.00917886 -0.00429375 0.0365122 0.0258888 0.0149728 -0.00277784 -0.0103122 -0.00214465 -0.00895505 -0.0114222 0.00759038 -0.015164 0.0293812 -0.0476257 -0.0148143 -0.0353759 -0.0559215 -0.0378371 -0.020293 0.0270505 0.0193883 -0.031229 -0.00752192 -0.0193747 -0.0200775 -0.0130095 -0.0142222
internal_weight=1115.95 340.262 194.047 775.691 535.613 146.214 84.1678 56.9289 105.438 78.5151 60.5484 416.64 362.576 54.0642 297.402 38.3691 18.5098 18.5597 12.2494 9.57955 17.9668 13.1688 88.6096 65.5535 5.63635 34.3234 25.7067 240.078 278.892 270.668
internal_count=8000 3689 1755 4311 3255 1934 1029 634 816 563 461 2387 2010 377 1591 464 87 170 106 80 102 81 939 657 53 219 161 1056 1504 1452
is_linear=0
shrinkage=0.05


Tree=23
num_leaves=31
num_cat=0
split_feature=14 14 26 18 14 10 14 23 26 26 14 18 23 23 21 26 22 1 16 1 14 13 13 2 21 16 19 23 7 26
split_gain=83.7261 17.6849 16.6225 15.6052 15.18 11.1836 10.2083 9.6181 7.01457 6.51095 6.09074 7.80337 6.31469 5.80214 6.45147 5.66534 5.5224 8.0985 9.37668 4.92204 4.95275 5.7826 5.63172 4.88036 6.00563 6.5567 6.62086 11.39 5.67628 5.77354
threshold=0.56543110623387272 0.40790148582221669 0.83968249353348423 1516.214285714286 0.72651139977112777 0.15246200059872422 0.9805547823087456 18376258.209716801 0.67056738767395807 0.91872479219346492 0.26639159477187718 861.64285714285722 40673821.05163575 20618016.197021488 63.359375000000007 0.72701829438136489 22394250.560546879 57551.000000000007 1.2512614671051676 53825.500000000007 0.5173661212626014 0.424653318306904 0.30384960482075996 83502.000000000015 68.015625000000014 1.1856477155986795 257.06250000000006 16977332.497924808 115172.50000000001 0.80812703056145907
decision_type=2 2 2 2 2 2 2 2 2 2 2 2 2 2 2 2 2 2 2 2 2 2 2 2 2 2 2 2 2 2
left_child=1 10 4 8 5 -2 -4 -5 -3 -8 -1 -12 23 -9 -15 -16 17 19 -19 20 22 -22 -10 24 25 -13 -27 -28 29 -25
right_child=2 3 6 7 -6 -7 9 13 16 -11 11 12 -14 14 15 -17 -18 18 -20 -21 21 -23 -24 28 -26 26 27 -29 -30 -31
leaf_value=-0.026156121526911727 0.046637992300185491 0.039986265586517106 -0.0051753534488828065 -0.047194089443879102 0.046745295921985397 0.0083726982648633496 0.039416577247346915 0.032670763621242514 0.059424438436884885 -0.0072602215430537373 0.00060034243863149128 -0.061342944016350133 0.0062542383722585292 -0.056427565673544844 0.025680019008948108 -0.0087512842180699647 0.046584835258579427 0.016524822813654673 -0.096773621713808225 0.053344295915640216 0.053284202113944523 0.0015663955406360467 -0.0013876846280568872 -0.035473500716836213 -0.011418070503797432 0.011177145712776762 -0.06207180942141341 -0.0017287949897336003 0.0092949123606190127 -0.097636041336284743
leaf_weight=84.704927161335945 25.901288211345673 20.463336072862148 64.155813224613667 15.120726361870764 91.048117931932211 72.661553256213665 28.773496836423874 9.3791853263974172 3.9873009175062171 10.091256305575369 101.3096244931221 12.888088107109068 30.200107604265213 6.5406463146209708 13.118733100593088 133.75865183770657 8.8899238631129247 3.3588245660066596 4.0020628646016121 5.9397814050316802 11.07981860637665 10.552395693957804 84.268010191619396 16.153191938996322 189.73770462721586 11.823938325047491 16.087268441915516 15.217003807425497 5.027642920613288 4.8588625937700263
leaf_count=352 356 194 489 72 1394 656 371 49 31 82 555 56 180 33 100 798 78 24 24 42 104 93 610 69 940 57 74 75 22 20
internal_value=0.000287505 -0.00791948 0.0232418 0.00101204 0.0320257 0.0184284 0.00707489 -0.00904871 0.0127465 0.0272969 -0.0139675 -0.0114076 -0.0154359 -0.00550573 -0.00783965 -0.00567596 0.00852611 0.00577959 -0.0450747 0.00901141 0.00661507 0.0280558 0.00135976 -0.017846 -0.015665 -0.0300503 -0.0206991 -0.0327391 -0.038429 -0.0498481
internal_weight=1111.1 818.468 292.632 330.459 189.611 98.5628 103.021 177.918 152.541 38.8648 488.008 403.303 301.994 162.797 153.418 146.877 132.078 123.188 7.36089 115.827 109.888 21.6322 88.2553 271.794 245.754 56.0163 43.1282 31.3043 26.0397 21.0121
internal_count=8000 4652 3348 2252 2406 1012 942 1052 1200 453 2400 2048 1493 980 931 898 1006 928 48 880 838 197 641 1313 1202 262 206 149 111 89
is_linear=0
shrinkage=0.05


Tree=24
num_leaves=31
num_cat=0
split_feature=14 14 26 9 14 10 15 18 26 9 26 3 7 21 19 7 4 21 4 20 14 19 9 6 10 8 19 14 25 20
split_gain=76.758 15.9154 15.8213 15.5068 14.948 10.7667 9.55033 8.51349 8.28182 7.20106 6.41456 6.04213 9.99378 6.78706 6.70439 9.14873 7.33842 6.3753 7.02751 7.63716 5.8718 5.84496 5.77978 9.41035 5.74432 10.0015 7.60217 5.40842 5.37609 7.41952
threshold=0.56543110623387272 0.41439249549987295 0.83968249353348423 0.064089388305198711 0.72651139977112777 0.15246200059872422 1.5642710279988326 4161.2142857142871 0.75792689651965894 0.022977647801949806 0.90927088331589656 67221.000000000015 80730.500000000015 116.14062500000001 634.81250000000011 89018.500000000015 71489.000000000015 130.68750000000003 95536.500000000015 261.07291666666669 0.37546727021397203 427.06250000000006 0.070008029915504866 76906.500000000015 0.39299182747602557 74538.500000000015 227.18750000000003 0.66511885336049026 -1.0000000826903672e-10 141.91666666666671
decision_type=2 2 2 2 2 2 2 2 2 2 2 2 2 2 2 2 2 2 2 2 2 2 2 2 2 2 2 2 2 2
left_child=1 11 4 8 5 -2 7 24 -3 -7 -8 13 -13 28 16 -16 -14 18 19 -18 -17 -19 23 -5 26 -26 -4 -28 -1 -30
right_child=2 3 6 22 -6 9 10 -9 -10 -11 -12 12 14 -15 15 20 17 21 -20 -21 -22 -23 -24 -25 25 -27 27 -29 29 -31
leaf_value=-0.0074260961351571286 0.046130200075946731 0.026294094095684076 -0.065537450300802227 -0.009444876255863377 0.046276263803372152 -0.045418258063986583 0.038475070735831868 -0.090002302217289998 0.0026775749496142057 0.012670351548115345 -0.0020911472753242723 -0.077769021486734188 0.030815334609372115 0.04093715247454463 -0.07309164909161707 -0.0025920470686287187 -0.023306941923232766 0.052213528727403702 -0.052203687807682787 0.045046996631161636 0.042748269290760726 -0.012953942099176064 -0.0065382795143332246 -0.09582107795266892 -0.0025709674938014931 -0.11395473864545203 -0.0060619535106248828 0.029299152962450361 -0.08941457113005441 -0.003895226779737089
leaf_weight=237.99623745679855 24.902461629360914 65.209384337067604 3.5199633166193953 8.7742347940802556 87.4634107388556 5.8012528494000426 28.504267137497663 2.8896592184901229 86.185847587883472 66.417271301150322 14.807093992829321 6.9173208326101294 6.6947543472051612 7.0111661702394477 3.7865022569894782 29.716679707169533 153.24068954586983 5.0800398290157309 21.113821759819984 4.1983923912048331 9.3993079736828786 10.663120239973066 148.21804337948561 4.9221395999193183 6.3589221462607366 2.9505470544099808 22.584260828793049 20.746911704540253 4.8343183547258359 5.3352467715740204
leaf_count=1232 356 592 25 57 1394 51 356 18 615 605 130 28 32 48 20 146 677 27 93 24 61 56 863 29 49 17 154 193 23 29
internal_value=0.000284597 -0.00750986 0.0225396 0.00134622 0.0312826 0.0177799 0.00677363 -0.00630616 0.0128497 0.00800414 0.0246065 -0.0129936 -0.0185047 -0.00757673 -0.0168239 0.00111918 -0.0206539 -0.0224274 -0.0251167 -0.0214842 0.00830293 0.00807445 -0.00940995 -0.0404864 -0.0019997 -0.037873 0.00512843 0.0108689 -0.00894734 -0.0445487
internal_weight=1106.24 819.297 286.946 313.31 184.584 97.121 102.362 59.0503 151.395 72.2185 43.3114 505.988 250.811 255.177 243.893 42.9025 200.991 194.296 178.553 157.439 39.116 15.7432 161.914 13.6964 56.1606 9.30947 46.8511 43.3312 248.166 10.1696
internal_count=8000 4652 3348 2156 2406 1012 942 456 1207 656 486 2496 1164 1332 1136 227 909 877 794 701 207 83 949 86 438 66 372 347 1284 52
is_linear=0
shrinkage=0.05


Tree=25
num_leaves=31
num_cat=0
split_feature=14 26 14 14 26 10 14 19 26 10 3 5 0 13 0 2 19 21 23 2 9 14 19 14 16 10 10 16 19 21
split_gain=70.4621 18.576 14.4675 12.2487 14.2811 10.1322 10.0639 10.2574 8.67094 7.93564 7.46535 8.36657 11.7637 5.84223 5.79412 7.4903 6.4134 5.76927 5.58069 7.89036 6.73746 7.79193 5.37418 5.20258 7.87443 6.76898 5.18239 4.837 4.80693 6.01677
threshold=0.53536202542250044 0.75974622380604229 0.9959656876162325 0.33192300663034235 0.66880907184291238 0.39299182747602557 0.70966914610856169 230.18750000000003 0.91872479219346492 0.085067163365471557 67422.500000000015 79827.000000000015 51322.000000000007 0.27300363308911113 51322.000000000007 57576.500000000007 136.18750000000003 65.140625000000014 44380793.702636726 85596.500000000015 0.012353367220169302 0.5173661212626014 280.50000000000006 0.6849693292658533 1.3652138028445651 0.19001208426828295 0.23037954763407029 3.5010489548390757 627.68750000000011 116.60937500000001
decision_type=2 2 2 2 2 2 2 2 2 2 2 2 2 2 2 2 2 2 2 2 2 2 2 2 2 2 2 2 2 2
left_child=3 23 5 -1 13 6 7 17 -4 -6 -9 12 -12 22 16 -16 -11 -3 19 -17 -20 -22 -5 24 -2 -26 -27 -10 29 -18
right_child=1 2 8 4 9 -7 -8 10 27 14 11 -13 -14 -15 15 18 28 -19 20 -21 21 -23 -24 -25 25 26 -28 -29 -30 -31
leaf_value=-0.016621456719080545 0.039357482806534588 -0.083407202861978419 0.044315510858122763 -0.053056525502075728 0.0070279863230426516 -0.027218073737844625 0.031806632315012351 0.016972369587663218 -0.036378237847590714 -0.056558034837745214 0.0072111039559020866 0.00098453533343518303 -0.11851441242972188 0.037257049919786199 -0.077976977188668931 -0.014007421143365603 -0.0038130429173240973 -0.0075437962001083493 -0.048659018847955246 -0.055856018366030602 0.021549966393566659 -0.049699189362711615 0.019816940614693464 0.052220874683640263 0.032559788020306672 -0.10443061499158622 -0.0020126181633221157 0.033453880124397463 0.03663470212833813 0.061460683544525857
leaf_weight=263.56625041365623 30.956809181720018 5.0060532093048078 45.883149713277817 3.8611284941434842 96.376818731427193 20.368835389614105 40.44468754902482 72.056215163320303 5.8447413146495801 5.2144368290901175 3.5998691320419303 32.453040651977062 3.8507106825709343 28.775689505040646 4.5429885387420645 158.77228502929211 147.61198572069407 5.0183040127158165 5.2551914304494849 12.123602196574209 29.274178817868233 4.4161804318428031 7.3382555618882179 43.416446272283792 4.3129778653383237 2.4675794318318367 2.4730057045817375 4.3070982396602631 8.387869715690611 3.6169252246618262
leaf_count=1152 376 36 695 24 680 164 536 636 39 29 23 244 26 252 28 805 902 37 33 52 184 29 52 741 51 22 20 43 63 26
internal_value=0.000281882 0.0199384 0.0128371 -0.00785333 -0.00337092 0.00602371 0.0101923 0.0030259 0.0350639 -0.00578352 0.00736434 -0.00998542 -0.0577681 0.0253323 -0.00903954 -0.0144588 -0.00199103 -0.0454291 -0.0130837 -0.0169762 0.00399698 0.0122105 -0.0053071 0.040219 0.0272602 -0.0132099 -0.0531654 -0.00675072 -0.000208406 -0.0022519
internal_weight=1101.59 322.46 238.833 779.134 515.568 182.798 162.429 121.984 56.035 475.592 111.96 39.9036 7.45058 39.9751 379.216 214.384 164.831 10.0244 209.841 170.896 38.9456 33.6904 11.1994 83.6268 40.2104 9.25356 4.94059 10.1518 159.617 151.229
internal_count=8000 3689 2479 4311 3159 1702 1538 1002 777 2831 929 293 49 328 2151 1131 1020 73 1103 857 246 213 76 1210 469 93 42 82 991 928
is_linear=0
shrinkage=0.05


Tree=26
num_leaves=31
num_cat=0
split_feature=14 14 10 2 19 21 3 11 14 10 10 14 2 2 20 20 19 9 5 3 0 19 14 3 12 10 2 2 12 6
split_gain=65.0693 20.9384 16.2909 13.4756 10.314 7.17068 7.38447 6.72616 6.73302 6.69737 6.95509 5.99021 5.88872 5.29439 5.62243 5.40423 5.18939 5.0575 4.97462 6.12445 4.86294 4.81746 4.76633 6.49607 7.33614 5.80378 5.43923 9.12399 9.16652 6.35966
threshold=0.66952074246838644 0.44515860733376861 0.14027839787069632 45070.000000000007 283.18750000000006 126.46875000000001 74211.000000000015 0.24431309699395123 0.32630172157900356 0.085067163365471557 0.086774917950989253 0.69652421308474899 46512.500000000007 51764.500000000007 219.20833333333334 201.38541666666669 566.56250000000011 0.0063971577478638009 86983.500000000015 82775.500000000015 34624.000000000007 504.68750000000006 0.36466755333815731 88769.000000000015 0.21624220749481285 0.057582422510869959 53595.500000000007 47460.500000000007 0.18564771559867937 76277.000000000015
decision_type=2 2 2 2 2 2 2 2 2 2 2 2 2 2 2 2 2 2 2 2 2 2 2 2 2 2 2 2 2 2
left_child=1 7 -3 -2 20 6 12 8 -1 22 -11 -7 -6 -14 15 16 21 -4 -8 -20 -5 -15 26 24 -24 -26 27 -10 -29 -28
right_child=3 2 17 4 5 11 18 -9 9 10 -12 -13 13 14 -16 -17 -18 -19 19 -21 -22 -23 23 -25 25 -27 29 28 -30 -31
leaf_value=-0.016258986441166245 0.041964912316563512 0.021825428139912485 -0.056640464431694994 0.0018334338563079919 -0.054546051530515331 -0.044672198956675492 -0.093926612260251466 -0.051025389337831573 -0.00023877763856714691 -0.064678259683905531 -0.0089152588798764414 0.046574232383946632 0.051215326567225362 0.0048939565547539976 0.04390811854079376 -0.055343432373048562 0.040261531146662054 -0.0013079561656932171 0.043705471337002817 -0.051848401428427442 -0.090572066444478808 -0.073759594713717888 0.042048822732199315 -0.055064868459900024 -0.032201074634791799 0.017987153578649523 0.041328060745624569 -0.01144230234778074 -0.11679376136095297 -0.0052600075756070348
leaf_weight=243.73465077579021 88.177042633295059 101.10969398915768 4.2085630744695655 2.5269298665225497 2.7244029790163031 1.9384967088699365 2.4169421754777414 10.118306100368498 14.31491667032242 5.7357358634471884 222.80064761638641 24.93479260802269 10.974530447274445 8.4246452450752347 9.1992652975022775 3.9797782376408568 7.7095283269882193 220.28167969733477 2.958200316876173 3.871611163020134 3.2613823711872101 2.531877174973487 21.41513679176569 3.0537923648953429 8.2060128971934336 19.327644139528275 9.7839373275637609 3.9723950996994954 4.2994556277990341 29.150079384446144
leaf_count=1056 1441 1010 30 22 34 18 17 44 79 34 1158 361 132 63 122 38 65 1502 32 30 25 18 177 23 64 149 54 24 22 156
internal_value=0.000280161 -0.00503571 0.00516053 0.0281721 0.014265 0.0188365 0.0084602 -0.0106068 -0.00990868 -0.00538377 -0.0103148 0.0399922 0.0167311 0.0212662 0.010945 -0.00244538 0.00883299 -0.00234529 -0.0322775 -0.0104611 -0.0502318 -0.0132816 0.00454296 0.0156864 0.0201004 0.00302927 -0.00487639 -0.0243957 -0.0662008 0.00644736
internal_weight=1097.14 921.513 325.6 175.629 87.4524 81.6641 54.7908 595.913 585.794 342.06 228.536 26.8733 45.544 42.8196 31.8451 22.6458 18.6661 224.49 9.24675 6.82981 5.78831 10.9565 113.523 52.0026 48.9488 27.5337 61.5208 22.5868 8.27185 38.934
internal_count=8000 5582 2542 2418 977 930 551 3040 2996 1940 1192 379 472 438 306 184 146 1532 79 62 47 81 748 413 390 213 335 125 46 210
is_linear=0
shrinkage=0.05


Tree=27
num_leaves=31
num_cat=0
split_feature=14 14 1 21 9 3 19 10 20 1 21 2 7 4 10 14 21 11 14 14 9 21 2 3 7 22 9 7 0 3
split_gain=60.1682 14.6603 14.1611 15.9403 11.2776 8.30806 8.66137 7.17903 6.58724 6.04158 7.85364 5.58371 10.3031 6.68968 6.22787 8.36403 5.60683 5.51921 5.47173 5.30229 5.63679 8.699 5.17351 7.82191 6.70716 6.67257 10.4991 5.8425 5.16449 5.12814
threshold=0.6078082837890727 0.41439249549987295 26184.000000000004 108.56250000000001 0.064089388305198711 74211.000000000015 283.18750000000006 0.24361946560841677 209.61458333333334 52764.500000000007 104.39062500000001 83502.000000000015 102248.00000000001 93315.000000000015 0.026742127216418454 0.28222482176344454 113.26562500000001 0.43088915594846228 0.34558159877003874 0.50646496315189582 0.087240972321917173 55.859375000000007 64888.500000000007 71243.000000000015 81853.000000000015 19663902.484375004 0.10900664767084482 87900.000000000015 38533.500000000007 67221.000000000015
decision_type=2 2 2 2 2 2 2 2 2 2 2 2 2 2 2 2 2 2 2 2 2 2 2 2 2 2 2 2 2 2
left_child=1 11 -2 5 7 6 -4 -3 -8 10 19 12 16 -13 -15 -16 29 -7 -17 20 28 -22 24 -24 -11 -26 -27 -25 -6 -1
right_child=2 4 3 -5 9 17 8 -9 -10 22 -12 13 -14 14 15 18 -18 -19 -20 -21 21 -23 23 27 25 26 -28 -29 -30 -31
leaf_value=-0.0075004771110915832 0.048069224081200929 0.013023547647462417 -0.025664904337674835 0.035113833606498279 -0.00098258021898376693 0.013233924433825005 0.0082152001976168575 -0.073644178249009332 0.04338882797007821 -0.014136519225517294 0.058450426585916385 -0.060456579080358952 0.041097370878711847 0.043960714715678605 -0.058663635940362446 0.0080561793977392462 0.0093969574516282045 -0.069115751865143848 -0.031201956121818537 0.012610504395976786 -0.048459501429678219 0.023501374640020334 0.036438868633032161 -0.067349453060711315 -0.11927200427479244 0.0046818277742008869 -0.099678232353710969 -0.007258114166743517 -0.063711884164995999 -0.019075222209536516
leaf_weight=248.91993018239737 46.013891093432903 161.15595243871212 15.256214644759892 72.16051222011447 5.3966970145702353 3.0835853144526464 65.597897004336119 2.4253719523549071 16.699577786028385 32.068220086395741 6.2330919317901126 11.039409682154654 9.9622133299708349 3.8091469556093207 11.959300279617308 18.940203294157982 33.291907556355 5.9814659506082535 16.703188858926296 38.772549513727427 5.9478342384099987 14.288790509104727 9.8585899919271451 4.359588384628295 3.2013361677527419 6.1181759014725667 3.9763889238238335 56.049174845218658 8.3701456487178785 155.45312589406967
leaf_count=1274 810 1364 141 1009 35 25 672 14 218 181 56 46 61 17 49 86 189 39 87 300 31 83 57 19 18 45 25 315 47 687
internal_value=0.00027741 -0.00569131 0.0233326 0.0169659 0.0020613 0.00468323 0.00893791 0.0117386 0.0153525 -0.00607173 0.0045851 -0.0111359 -0.00918188 -0.0251414 -0.0175584 -0.0224811 -0.0103263 -0.0411035 -0.0103409 -2.83321e-05 -0.0144398 0.00235104 -0.0133534 -0.00485562 -0.0265161 -0.0563741 -0.036427 -0.0115948 -0.0391216 -0.0119502
internal_weight=1093.09 868.3 224.793 178.779 358.222 106.619 97.5537 163.581 82.2975 194.641 79.0091 510.078 447.627 62.4512 51.4118 47.6027 437.665 9.06505 35.6434 72.776 34.0035 20.2366 115.631 70.2674 45.3641 13.2959 10.0946 60.4088 13.7668 404.373
internal_count=8000 5086 2914 2104 2590 1095 1031 1378 890 1212 552 2496 2211 285 239 222 2150 64 173 496 196 114 660 391 269 88 70 334 82 1961
is_linear=0
shrinkage=0.05


Tree=28
num_leaves=31
num_cat=0
split_feature=14 14 10 1 23 7 19 11 12 14 10 22 14 14 21 12 11 21 22 3 21 11 12 14 12 19 23 21 4 9
split_gain=55.9574 16.9067 13.5794 13.4583 12.1233 9.60416 7.34206 6.20402 6.86285 6.16098 5.32173 9.77383 6.96912 6.45171 5.99391 6.1597 6.30405 6.52093 14.1425 6.59556 6.16045 5.94504 5.39213 4.7505 6.81194 7.85509 8.09252 4.48391 5.36934 4.46415
threshold=0.66952074246838644 0.45114553111297245 0.15126483046934702 42949.500000000007 55885245.585449226 88524.500000000015 283.18750000000006 0.24431309699395123 0.30801599926875828 0.26639159477187718 0.067769219846863918 2979785.4843750005 0.2701537787995188 0.36466755333815731 119.51562500000001 0.16492775448448874 0.11425238206137471 93.921875000000014 8916429.9980468769 53632.500000000007 66.453125000000014 0.11086153184063481 0.14566108954882748 0.54727759176508106 0.32973281942533039 627.68750000000011 23242148.445312504 138.42187500000003 94647.500000000015 0.0076370647403657512
decision_type=2 2 2 2 2 2 2 2 2 2 2 2 2 2 2 2 2 2 2 2 2 2 2 2 2 2 2 2 2 2
left_child=1 7 23 -2 5 6 -5 9 -9 29 11 -11 -13 14 15 16 17 18 19 20 -14 -16 -19 24 -3 26 -26 28 -6 -1
right_child=3 2 -4 4 27 -7 -8 8 -10 10 -12 12 13 -15 21 -17 -18 22 -20 -21 -22 -23 -24 -25 25 -27 -28 -29 -30 -31
leaf_value=-0.0046317252708876723 0.039380573886030869 0.019432674377633668 -0.0026511316576462184 -0.061448535334698788 0.027252316942761597 -0.069081955291713168 0.010640983172041381 -0.076625655534095616 -0.0022775778465940625 0.051227952204401919 -0.0098252186417561449 0.055080088938943651 -0.0098825287115318558 0.01656728988229755 0.054150335062518741 -0.0029688072190382038 -0.084144759385593557 -0.024514790998542323 -0.11240071191468284 0.012556472574545723 -0.093556253912030651 -0.021715759153081465 0.040615177018549165 0.038361498809148041 0.0039511712993683208 0.02194800448230913 -0.11136215273733319 0.054105871355094787 -0.047035551772259279 -0.028962782868245541
